{"learner":{"attributes":{"best_iteration":"237","best_score":"0.38181469835340975","scikit_learn":"{\"_estimator_type\": \"classifier\"}"},"feature_names":["months_as_customer","age","policy_deductable","policy_annual_premium","umbrella_limit","insured_zip","capital-gains","capital-loss","incident_hour_of_the_day","number_of_vehicles_involved","bodily_injuries","witnesses","total_claim_amount","injury_claim","property_claim","vehicle_claim","auto_year","policy_state_IL","policy_state_IN","policy_state_OH","policy_csl_100/300","policy_csl_250/500","policy_csl_500/1000","insured_sex_FEMALE","insured_sex_MALE","insured_education_level_Associate","insured_education_level_College","insured_education_level_High School","insured_education_level_JD","insured_education_level_MD","insured_education_level_Masters","insured_education_level_PhD","insured_hobbies_chess","insured_hobbies_cross-fit","insured_hobbies_other","insured_relationship_husband","insured_relationship_not-in-family","insured_relationship_other-relative","insured_relationship_own-child","insured_relationship_unmarried","insured_relationship_wife","incident_type_Multi-vehicle Collision","incident_type_Parked Car","incident_type_Single Vehicle Collision","incident_type_Vehicle Theft","collision_type_?","collision_type_Front Collision","collision_type_Rear Collision","collision_type_Side Collision","incident_severity_Major Damage","incident_severity_Minor Damage","incident_severity_Total Loss","incident_severity_Trivial Damage","authorities_contacted_Ambulance","authorities_contacted_Fire","authorities_contacted_None","authorities_contacted_Other","authorities_contacted_Police","incident_state_NC","incident_state_NY","incident_state_OH","incident_state_PA","incident_state_SC","incident_state_VA","incident_state_WV","incident_city_Arlington","incident_city_Columbus","incident_city_Hillsdale","incident_city_Northbend","incident_city_Northbrook","incident_city_Riverwood","incident_city_Springfield","property_damage_NO","property_damage_Unknown","property_damage_YES","police_report_available_NO","police_report_available_Unknown","police_report_available_YES","auto_make_Accura","auto_make_Audi","auto_make_BMW","auto_make_Chevrolet","auto_make_Dodge","auto_make_Ford","auto_make_Honda","auto_make_Jeep","auto_make_Mercedes","auto_make_Nissan","auto_make_Saab","auto_make_Suburu","auto_make_Toyota","auto_make_Volkswagen"],"feature_types":["int","int","int","float","int","int","int","int","int","int","int","int","int","int","int","int","int","i","i","i","i","i","i","i","i","i","i","i","i","i","i","i","i","i","i","i","i","i","i","i","i","i","i","i","i","i","i","i","i","i","i","i","i","i","i","i","i","i","i","i","i","i","i","i","i","i","i","i","i","i","i","i","i","i","i","i","i","i","i","i","i","i","i","i","i","i","i","i","i","i","i","i"],"gradient_booster":{"model":{"gbtree_model_param":{"num_parallel_tree":"1","num_trees":"248"},"iteration_indptr":[0,1,2,3,4,5,6,7,8,9,10,11,12,13,14,15,16,17,18,19,20,21,22,23,24,25,26,27,28,29,30,31,32,33,34,35,36,37,38,39,40,41,42,43,44,45,46,47,48,49,50,51,52,53,54,55,56,57,58,59,60,61,62,63,64,65,66,67,68,69,70,71,72,73,74,75,76,77,78,79,80,81,82,83,84,85,86,87,88,89,90,91,92,93,94,95,96,97,98,99,100,101,102,103,104,105,106,107,108,109,110,111,112,113,114,115,116,117,118,119,120,121,122,123,124,125,126,127,128,129,130,131,132,133,134,135,136,137,138,139,140,141,142,143,144,145,146,147,148,149,150,151,152,153,154,155,156,157,158,159,160,161,162,163,164,165,166,167,168,169,170,171,172,173,174,175,176,177,178,179,180,181,182,183,184,185,186,187,188,189,190,191,192,193,194,195,196,197,198,199,200,201,202,203,204,205,206,207,208,209,210,211,212,213,214,215,216,217,218,219,220,221,222,223,224,225,226,227,228,229,230,231,232,233,234,235,236,237,238,239,240,241,242,243,244,245,246,247,248],"tree_info":[0,0,0,0,0,0,0,0,0,0,0,0,0,0,0,0,0,0,0,0,0,0,0,0,0,0,0,0,0,0,0,0,0,0,0,0,0,0,0,0,0,0,0,0,0,0,0,0,0,0,0,0,0,0,0,0,0,0,0,0,0,0,0,0,0,0,0,0,0,0,0,0,0,0,0,0,0,0,0,0,0,0,0,0,0,0,0,0,0,0,0,0,0,0,0,0,0,0,0,0,0,0,0,0,0,0,0,0,0,0,0,0,0,0,0,0,0,0,0,0,0,0,0,0,0,0,0,0,0,0,0,0,0,0,0,0,0,0,0,0,0,0,0,0,0,0,0,0,0,0,0,0,0,0,0,0,0,0,0,0,0,0,0,0,0,0,0,0,0,0,0,0,0,0,0,0,0,0,0,0,0,0,0,0,0,0,0,0,0,0,0,0,0,0,0,0,0,0,0,0,0,0,0,0,0,0,0,0,0,0,0,0,0,0,0,0,0,0,0,0,0,0,0,0,0,0,0,0,0,0,0,0,0,0,0,0,0,0,0,0,0,0,0,0,0,0,0,0],"trees":[{"base_weights":[-5.8435827E-2,-8.6636066E-1,1.5520288E0,2.0883376E-2,-1.3114938E-2,8.5316885E-1,1.8389054E-2,1.1089004E-2,-4.51168E-3],"categories":[],"categories_nodes":[],"categories_segments":[],"categories_sizes":[],"default_left":[0,0,0,0,0,0,0,0,0],"id":0,"left_children":[1,3,5,-1,-1,7,-1,-1,-1],"loss_changes":[2.3048177E2,1.5703912E2,8.891617E0,0E0,0E0,7.166954E0,0E0,0E0,0E0],"parents":[2147483647,0,0,1,1,2,2,5,5],"right_children":[2,4,6,-1,-1,8,-1,-1,-1],"split_conditions":[1E0,1E0,1.1682E3,2.0883376E-2,-1.3114938E-2,1E0,1.8389054E-2,1.1089004E-2,-4.51168E-3],"split_indices":[49,34,3,0,0,53,0,0,0],"split_type":[0,0,0,0,0,0,0,0,0],"sum_hessian":[1.762036E2,1.17832985E2,5.837062E1,1.4905007E1,1.0292798E2,1.8460482E1,3.9910137E1,1.5974195E1,2.4862883E0],"tree_param":{"num_deleted":"0","num_feature":"92","num_nodes":"9","size_leaf_vector":"1"}},{"base_weights":[-5.051318E-2,-8.4256345E-1,1.4898854E0,2.1816758E-2,-1.2492899E-2,-0E0,1.559823E-2],"categories":[],"categories_nodes":[],"categories_segments":[],"categories_sizes":[],"default_left":[0,0,0,0,0,0,0],"id":1,"left_children":[1,3,5,-1,-1,-1,-1],"loss_changes":[2.122251E2,1.4304861E2,6.621811E0,0E0,0E0,0E0,0E0],"parents":[2147483647,0,0,1,1,2,2],"right_children":[2,4,6,-1,-1,-1,-1],"split_conditions":[1E0,1E0,1.996E3,2.1816758E-2,-1.2492899E-2,-0E0,1.559823E-2],"split_indices":[49,34,16,0,0,0,0],"split_type":[0,0,0,0,0,0,0],"sum_hessian":[1.7301456E2,1.147626E2,5.825196E1,1.3061944E1,1.0170066E2,2.4415455E0,5.5810417E1],"tree_param":{"num_deleted":"0","num_feature":"92","num_nodes":"7","size_leaf_vector":"1"}},{"base_weights":[-5.105724E-4,-8.0442554E-1,1.5750391E0,2.1203129E-2,-1.2274431E-2,7.0534366E-1,1.7498943E0,1.2110399E-2,-2.750198E-3,1.8844005E-2,4.9880403E-3],"categories":[],"categories_nodes":[],"categories_segments":[],"categories_sizes":[],"default_left":[0,0,0,0,0,0,0,0,0,0,0],"id":2,"left_children":[1,3,5,-1,-1,7,9,-1,-1,-1,-1],"loss_changes":[2.2320345E2,1.4613312E2,6.475769E0,0E0,0E0,6.6894684E0,5.81839E0,0E0,0E0,0E0,0E0],"parents":[2147483647,0,0,1,1,2,2,5,5,6,6],"right_children":[2,4,6,-1,-1,8,10,-1,-1,-1,-1],"split_conditions":[1E0,1E0,4.50184E5,2.1203129E-2,-1.2274431E-2,1E0,6.13936E5,1.2110399E-2,-2.750198E-3,1.8844005E-2,4.9880403E-3],"split_indices":[49,34,5,0,0,23,5,0,0,0,0],"split_type":[0,0,0,0,0,0,0,0,0,0,0],"sum_hessian":[1.7536559E2,1.16627495E2,5.8738083E1,1.4195689E1,1.0243181E2,1.1062074E1,4.767601E1,7.6792994E0,3.3827746E0,4.223606E1,5.439948E0],"tree_param":{"num_deleted":"0","num_feature":"92","num_nodes":"11","size_leaf_vector":"1"}},{"base_weights":[1.0290427E-2,-7.804412E-1,1.4993982E0,2.145871E-2,-1.2542978E-2,7.702082E-1,1.7337661E0,-9.058879E-4,1.5200105E-2,2.0851864E-2,1.0619493E-2],"categories":[],"categories_nodes":[],"categories_segments":[],"categories_sizes":[],"default_left":[0,0,0,0,0,0,0,0,0,0,0],"id":3,"left_children":[1,3,5,-1,-1,7,9,-1,-1,-1,-1],"loss_changes":[2.1514653E2,1.657644E2,8.202927E0,0E0,0E0,1.2315768E1,7.37117E0,0E0,0E0,0E0,0E0],"parents":[2147483647,0,0,1,1,2,2,5,5,6,6],"right_children":[2,4,6,-1,-1,8,10,-1,-1,-1,-1],"split_conditions":[1E0,1E0,4.54985E5,2.145871E-2,-1.2542978E-2,8.71E3,6.0332E5,-9.058879E-4,1.5200105E-2,2.0851864E-2,1.0619493E-2],"split_indices":[49,34,5,0,0,14,5,0,0,0,0],"split_type":[0,0,0,0,0,0,0,0,0,0,0],"sum_hessian":[1.8099266E2,1.1810443E2,6.2888233E1,1.5931303E1,1.0217313E2,1.671256E1,4.6175674E1,7.6001167E0,9.112445E0,2.8725622E1,1.745005E1],"tree_param":{"num_deleted":"0","num_feature":"92","num_nodes":"11","size_leaf_vector":"1"}},{"base_weights":[-5.5184066E-2,-7.511431E-1,1.3734157E0,2.1016773E-2,-1.1994601E-2,8.4744674E-1,1.7306849E0,1.1207698E-2,-2.2801873E-3,1.8175332E-2,-0E0],"categories":[],"categories_nodes":[],"categories_segments":[],"categories_sizes":[],"default_left":[0,0,0,0,0,0,0,0,0,0,0],"id":4,"left_children":[1,3,5,-1,-1,7,9,-1,-1,-1,-1],"loss_changes":[1.7575487E2,1.5378047E2,8.054512E0,0E0,0E0,8.277988E0,5.6821823E0,0E0,0E0,0E0,0E0],"parents":[2147483647,0,0,1,1,2,2,5,5,6,6],"right_children":[2,4,6,-1,-1,8,10,-1,-1,-1,-1],"split_conditions":[1E0,1E0,1.22248E3,2.1016773E-2,-1.1994601E-2,6.02177E5,8.892E4,1.1207698E-2,-2.2801873E-3,1.8175332E-2,-0E0],"split_indices":[49,34,3,0,0,5,12,0,0,0,0],"split_type":[0,0,0,0,0,0,0,0,0,0,0],"sum_hessian":[1.7590445E2,1.1882487E2,5.707959E1,1.5596989E1,1.03227875E2,2.4779879E1,3.2299713E1,2.026754E1,4.512338E0,3.0946527E1,1.3531854E0],"tree_param":{"num_deleted":"0","num_feature":"92","num_nodes":"11","size_leaf_vector":"1"}},{"base_weights":[-0E0,-7.653822E-1,1.5155616E-2,2.0582004E-2,-1.1867251E-2],"categories":[],"categories_nodes":[],"categories_segments":[],"categories_sizes":[],"default_left":[0,0,0,0,0],"id":5,"left_children":[1,3,-1,-1,-1],"loss_changes":[2.1345386E2,1.4648785E2,0E0,0E0,0E0],"parents":[2147483647,0,0,1,1],"right_children":[2,4,-1,-1,-1],"split_conditions":[1E0,1E0,1.5155616E-2,2.0582004E-2,-1.1867251E-2],"split_indices":[49,34,0,0,0],"split_type":[0,0,0,0,0],"sum_hessian":[1.8276938E2,1.21683784E2,6.1085594E1,1.5253928E1,1.06429855E2],"tree_param":{"num_deleted":"0","num_feature":"92","num_nodes":"5","size_leaf_vector":"1"}},{"base_weights":[-1.29984375E-2,-8.0444723E-1,1.476714E-2,2.0679004E-2,-1.29863685E-2],"categories":[],"categories_nodes":[],"categories_segments":[],"categories_sizes":[],"default_left":[0,0,0,0,0],"id":6,"left_children":[1,3,-1,-1,-1],"loss_changes":[2.1045741E2,1.67466E2,0E0,0E0,0E0],"parents":[2147483647,0,0,1,1],"right_children":[2,4,-1,-1,-1],"split_conditions":[1E0,1E0,1.476714E-2,2.0679004E-2,-1.29863685E-2],"split_indices":[49,34,0,0,0],"split_type":[0,0,0,0,0],"sum_hessian":[1.7761244E2,1.1649762E2,6.1114826E1,1.6586758E1,9.991086E1],"tree_param":{"num_deleted":"0","num_feature":"92","num_nodes":"5","size_leaf_vector":"1"}},{"base_weights":[1.8753827E-2,-7.434474E-1,1.4448913E0,1.895171E-2,-1.1832875E-2,1.6130193E0,4.3965277E-1,1.6644318E-2,-0E0,1.0430774E-2,-6.596655E-3],"categories":[],"categories_nodes":[],"categories_segments":[],"categories_sizes":[],"default_left":[0,0,0,0,0,0,0,0,0,0,0],"id":7,"left_children":[1,3,5,-1,-1,7,9,-1,-1,-1,-1],"loss_changes":[1.9364754E2,1.3496198E2,8.586975E0,0E0,0E0,5.06839E0,7.6255774E0,0E0,0E0,0E0,0E0],"parents":[2147483647,0,0,1,1,2,2,5,5,6,6],"right_children":[2,4,6,-1,-1,8,10,-1,-1,-1,-1],"split_conditions":[1E0,1E0,1E0,1.895171E-2,-1.1832875E-2,1.74E4,1E0,1.6644318E-2,-0E0,1.0430774E-2,-6.596655E-3],"split_indices":[49,34,38,0,0,13,19,0,0,0,0],"split_type":[0,0,0,0,0,0,0,0,0,0,0],"sum_hessian":[1.7640236E2,1.1483543E2,6.156694E1,1.586952E1,9.8965904E1,5.1800602E1,9.766338E0,5.0440155E1,1.3604465E0,6.747112E0,3.0192263E0],"tree_param":{"num_deleted":"0","num_feature":"92","num_nodes":"11","size_leaf_vector":"1"}},{"base_weights":[1.6814682E-3,-7.0112735E-1,1.3990673E0,1.9144664E-2,-1.1650466E-2,5.946093E-1,1.5985755E-2,-1.6876912E-3,1.1998496E-2],"categories":[],"categories_nodes":[],"categories_segments":[],"categories_sizes":[],"default_left":[0,0,0,0,0,0,0,0,0],"id":8,"left_children":[1,3,5,-1,-1,7,-1,-1,-1],"loss_changes":[1.7577618E2,1.4458293E2,7.4561844E0,0E0,0E0,7.188181E0,0E0,0E0,0E0],"parents":[2147483647,0,0,1,1,2,2,5,5],"right_children":[2,4,6,-1,-1,8,-1,-1,-1],"split_conditions":[1E0,1E0,4.50184E5,1.9144664E-2,-1.1650466E-2,7.81E3,1.5985755E-2,-1.6876912E-3,1.1998496E-2],"split_indices":[49,34,5,0,0,14,0,0,0],"split_type":[0,0,0,0,0,0,0,0,0],"sum_hessian":[1.7718155E2,1.17762665E2,5.941888E1,1.7203989E1,1.0055868E2,1.3031541E1,4.6387337E1,5.4456606E0,7.5858803E0],"tree_param":{"num_deleted":"0","num_feature":"92","num_nodes":"9","size_leaf_vector":"1"}},{"base_weights":[1.22615555E-2,-7.5673395E-1,1.4448165E0,1.936408E-2,-1.1769883E-2,-0E0,1.5014241E-2],"categories":[],"categories_nodes":[],"categories_segments":[],"categories_sizes":[],"default_left":[0,0,0,0,0,0,0],"id":9,"left_children":[1,3,5,-1,-1,-1,-1],"loss_changes":[1.9810384E2,1.3267575E2,5.400467E0,0E0,0E0,0E0,0E0],"parents":[2147483647,0,0,1,1,2,2],"right_children":[2,4,6,-1,-1,-1,-1],"split_conditions":[1E0,1E0,1.996E3,1.936408E-2,-1.1769883E-2,-0E0,1.5014241E-2],"split_indices":[49,34,16,0,0,0,0],"split_type":[0,0,0,0,0,0,0],"sum_hessian":[1.7809464E2,1.1575964E2,6.233499E1,1.5081175E1,1.0067847E2,2.2638927E0,6.00711E1],"tree_param":{"num_deleted":"0","num_feature":"92","num_nodes":"7","size_leaf_vector":"1"}},{"base_weights":[-1.2434315E-3,-7.676723E-1,1.3854944E0,1.8811725E-2,-1.1476956E-2,5.103253E-1,1.5766853E0,7.063814E-4,1.5633928E-2,1.0168041E-2,1.8970072E-2],"categories":[],"categories_nodes":[],"categories_segments":[],"categories_sizes":[],"default_left":[0,0,0,0,0,0,0,0,0,0,0],"id":10,"left_children":[1,3,5,-1,-1,7,9,-1,-1,-1,-1],"loss_changes":[1.9521265E2,1.205489E2,8.89492E0,0E0,0E0,4.9238567E0,6.088455E0,0E0,0E0,0E0,0E0],"parents":[2147483647,0,0,1,1,2,2,5,5,6,6],"right_children":[2,4,6,-1,-1,8,10,-1,-1,-1,-1],"split_conditions":[1E0,1E0,4.50184E5,1.8811725E-2,-1.1476956E-2,2.013E3,1.22248E3,7.063814E-4,1.5633928E-2,1.0168041E-2,1.8970072E-2],"split_indices":[49,34,5,0,0,16,3,0,0,0,0],"split_type":[0,0,0,0,0,0,0,0,0,0,0],"sum_hessian":[1.8279597E2,1.18247116E2,6.454887E1,1.4279766E1,1.0396735E2,1.2669301E1,5.1879566E1,9.903223E0,2.7660775E0,2.0674095E1,3.120547E1],"tree_param":{"num_deleted":"0","num_feature":"92","num_nodes":"11","size_leaf_vector":"1"}},{"base_weights":[-3.5265487E-2,-7.6685494E-1,1.3769636E0,1.7262995E-2,-1.1435477E-2,5.453702E-1,1.5771409E0,-0E0,1.6806044E-2,-0E0,1.6761893E-2],"categories":[],"categories_nodes":[],"categories_segments":[],"categories_sizes":[],"default_left":[0,0,0,0,0,0,0,0,0,0,0],"id":11,"left_children":[1,3,5,-1,-1,7,9,-1,-1,-1,-1],"loss_changes":[1.7855621E2,1.0833301E2,7.712059E0,0E0,0E0,6.9177322E0,6.6320496E0,0E0,0E0,0E0,0E0],"parents":[2147483647,0,0,1,1,2,2,5,5,6,6],"right_children":[2,4,6,-1,-1,8,10,-1,-1,-1,-1],"split_conditions":[1E0,1E0,4.50184E5,1.7262995E-2,-1.1435477E-2,1.296E4,6.1E1,-0E0,1.6806044E-2,-0E0,1.6761893E-2],"split_indices":[49,34,5,0,0,13,0,0,0,0,0],"split_type":[0,0,0,0,0,0,0,0,0,0,0],"sum_hessian":[1.7194066E2,1.1379333E2,5.814734E1,1.4383285E1,9.941004E1,1.24418E1,4.570554E1,9.259987E0,3.181813E0,2.9555728E0,4.2749966E1],"tree_param":{"num_deleted":"0","num_feature":"92","num_nodes":"11","size_leaf_vector":"1"}},{"base_weights":[8.339962E-3,-7.683345E-1,1.3815196E0,1.8113405E-2,-1.1889037E-2,1.5212547E0,5.091203E-1,6.457923E-3,1.6783934E-2,1.1508639E-2,-4.3379576E-3],"categories":[],"categories_nodes":[],"categories_segments":[],"categories_sizes":[],"default_left":[0,0,0,0,0,0,0,0,0,0,0],"id":12,"left_children":[1,3,5,-1,-1,7,9,-1,-1,-1,-1],"loss_changes":[1.9276517E2,1.25554474E2,6.0285645E0,0E0,0E0,5.258545E0,7.3212194E0,0E0,0E0,0E0,0E0],"parents":[2147483647,0,0,1,1,2,2,5,5,6,6],"right_children":[2,4,6,-1,-1,8,10,-1,-1,-1,-1],"split_conditions":[1E0,1E0,1E0,1.8113405E-2,-1.1889037E-2,4.47274E5,1E0,6.457923E-3,1.6783934E-2,1.1508639E-2,-4.3379576E-3],"split_indices":[49,34,38,0,0,5,19,0,0,0,0],"split_type":[0,0,0,0,0,0,0,0,0,0,0],"sum_hessian":[1.7904349E2,1.1420933E2,6.483416E1,1.5471757E1,9.873757E1,5.476189E1,1.0072269E1,9.528923E0,4.5232967E1,6.360371E0,3.7118986E0],"tree_param":{"num_deleted":"0","num_feature":"92","num_nodes":"11","size_leaf_vector":"1"}},{"base_weights":[4.8758227E-2,-6.9831127E-1,1.3859417E0,1.8820154E-2,-1.1580957E-2,6.163944E-1,1.5703965E0,-5.3936034E-3,9.626556E-3,1.784368E-2,8.029437E-3],"categories":[],"categories_nodes":[],"categories_segments":[],"categories_sizes":[],"default_left":[0,0,0,0,0,0,0,0,0,0,0],"id":13,"left_children":[1,3,5,-1,-1,7,9,-1,-1,-1,-1],"loss_changes":[1.7807907E2,1.3582404E2,6.9017334E0,0E0,0E0,6.3202686E0,5.515663E0,0E0,0E0,0E0,0E0],"parents":[2147483647,0,0,1,1,2,2,5,5,6,6],"right_children":[2,4,6,-1,-1,8,10,-1,-1,-1,-1],"split_conditions":[1E0,1E0,4.50184E5,1.8820154E-2,-1.1580957E-2,2E3,1E0,-5.3936034E-3,9.626556E-3,1.784368E-2,8.029437E-3],"split_indices":[49,34,5,0,0,16,72,0,0,0,0],"split_type":[0,0,0,0,0,0,0,0,0,0,0],"sum_hessian":[1.7649895E2,1.1308991E2,6.3409042E1,1.6566107E1,9.65238E1,1.35525E1,4.985654E1,2.5645967E0,1.0987904E1,3.758826E1,1.2268281E1],"tree_param":{"num_deleted":"0","num_feature":"92","num_nodes":"11","size_leaf_vector":"1"}},{"base_weights":[-0E0,-7.088396E-1,1.3316052E0,1.781001E-2,-1.1359028E-2,1.4974106E-2,3.1788102E-1,-1.29338E-3,1.2887484E-2],"categories":[],"categories_nodes":[],"categories_segments":[],"categories_sizes":[],"default_left":[0,0,0,0,0,0,0,0,0],"id":14,"left_children":[1,3,5,-1,-1,-1,7,-1,-1],"loss_changes":[1.6403941E2,1.2163295E2,8.532112E0,0E0,0E0,0E0,5.238867E0,0E0,0E0],"parents":[2147483647,0,0,1,1,2,2,6,6],"right_children":[2,4,6,-1,-1,-1,8,-1,-1],"split_conditions":[1E0,1E0,1E0,1.781001E-2,-1.1359028E-2,1.4974106E-2,3E6,-1.29338E-3,1.2887484E-2],"split_indices":[49,34,38,0,0,0,4,0,0],"split_type":[0,0,0,0,0,0,0,0,0],"sum_hessian":[1.726275E2,1.129503E2,5.9677197E1,1.5991895E1,9.695841E1,5.0416683E1,9.260516E0,6.218284E0,3.0422316E0],"tree_param":{"num_deleted":"0","num_feature":"92","num_nodes":"9","size_leaf_vector":"1"}},{"base_weights":[-1.21124415E-2,-7.427447E-1,1.3012142E-2,1.759661E-2,-1.169239E-2],"categories":[],"categories_nodes":[],"categories_segments":[],"categories_sizes":[],"default_left":[0,0,0,0,0],"id":15,"left_children":[1,3,-1,-1,-1],"loss_changes":[1.6998631E2,1.2304051E2,0E0,0E0,0E0],"parents":[2147483647,0,0,1,1],"right_children":[2,4,-1,-1,-1],"split_conditions":[1E0,1E0,1.3012142E-2,1.759661E-2,-1.169239E-2],"split_indices":[49,34,0,0,0],"split_type":[0,0,0,0,0],"sum_hessian":[1.7627132E2,1.13792E2,6.247932E1,1.6031605E1,9.77604E1],"tree_param":{"num_deleted":"0","num_feature":"92","num_nodes":"5","size_leaf_vector":"1"}},{"base_weights":[-5.6372763E-5,-7.263573E-1,1.3618562E0,1.7388811E-2,-1.1569829E-2,8.8693553E-1,1.6499339E0,1.0471035E-2,-8.270325E-3,1.7517775E-2,-0E0],"categories":[],"categories_nodes":[],"categories_segments":[],"categories_sizes":[],"default_left":[0,0,0,0,0,0,0,0,0,0,0],"id":16,"left_children":[1,3,5,-1,-1,7,9,-1,-1,-1,-1],"loss_changes":[1.6938771E2,1.20127686E2,5.3625717E0,0E0,0E0,7.51194E0,5.880844E0,0E0,0E0,0E0,0E0],"parents":[2147483647,0,0,1,1,2,2,5,5,6,6],"right_children":[2,4,6,-1,-1,8,10,-1,-1,-1,-1],"split_conditions":[1E0,1E0,1.22248E3,1.7388811E-2,-1.1569829E-2,1.19119E3,8.613E4,1.0471035E-2,-8.270325E-3,1.7517775E-2,-0E0],"split_indices":[49,34,3,0,0,3,12,0,0,0,0],"split_type":[0,0,0,0,0,0,0,0,0,0,0],"sum_hessian":[1.7041302E2,1.11681076E2,5.8731945E1,1.6068478E1,9.56126E1,2.4107445E1,3.46245E1,2.265892E1,1.4485242E0,3.255907E1,2.0654275E0],"tree_param":{"num_deleted":"0","num_feature":"92","num_nodes":"11","size_leaf_vector":"1"}},{"base_weights":[5.45642E-2,-6.669308E-1,1.2702265E0,1.7325342E-2,-1.1074769E-2,-0E0,1.3506607E0,1.4334054E-2,-0E0],"categories":[],"categories_nodes":[],"categories_segments":[],"categories_sizes":[],"default_left":[0,0,0,0,0,0,0,0,0],"id":17,"left_children":[1,3,5,-1,-1,-1,7,-1,-1],"loss_changes":[1.5573416E2,1.1789314E2,6.495407E0,0E0,0E0,0E0,6.3304214E0,0E0,0E0],"parents":[2147483647,0,0,1,1,2,2,6,6],"right_children":[2,4,6,-1,-1,-1,8,-1,-1],"split_conditions":[1E0,1E0,4.36984E5,1.7325342E-2,-1.1074769E-2,-0E0,1E0,1.4334054E-2,-0E0],"split_indices":[49,34,5,0,0,0,82,0,0],"split_type":[0,0,0,0,0,0,0,0,0],"sum_hessian":[1.7579527E2,1.1013354E2,6.566174E1,1.6538248E1,9.359529E1,4.1017637E0,6.155998E1,5.7666527E1,3.8934503E0],"tree_param":{"num_deleted":"0","num_feature":"92","num_nodes":"9","size_leaf_vector":"1"}},{"base_weights":[-2.8766617E-2,-7.3793066E-1,1.2221763E0,1.7085917E-2,-1.1181033E-2,-0E0,1.3028973E0,6.226421E-3,1.48369605E-2],"categories":[],"categories_nodes":[],"categories_segments":[],"categories_sizes":[],"default_left":[0,0,0,0,0,0,0,0,0],"id":18,"left_children":[1,3,5,-1,-1,-1,7,-1,-1],"loss_changes":[1.5648451E2,1.0607395E2,6.0014877E0,0E0,0E0,0E0,5.2133636E0,0E0,0E0],"parents":[2147483647,0,0,1,1,2,2,6,6],"right_children":[2,4,6,-1,-1,-1,8,-1,-1],"split_conditions":[1E0,1E0,4.36984E5,1.7085917E-2,-1.1181033E-2,-0E0,6.27E3,6.226421E-3,1.48369605E-2],"split_indices":[49,34,5,0,0,0,14,0,0],"split_type":[0,0,0,0,0,0,0,0,0],"sum_hessian":[1.7548422E2,1.1252851E2,6.2955708E1,1.4577677E1,9.7950836E1,4.10132E0,5.8854385E1,1.3791798E1,4.5062588E1],"tree_param":{"num_deleted":"0","num_feature":"92","num_nodes":"9","size_leaf_vector":"1"}},{"base_weights":[3.1471215E-3,-7.0320034E-1,1.2519549E0,1.796934E-2,-1.1523188E-2,4.3256748E-1,1.4768255E0,-4.0412634E-3,9.291531E-3,1.7795013E-2,9.2603965E-3],"categories":[],"categories_nodes":[],"categories_segments":[],"categories_sizes":[],"default_left":[0,0,0,0,0,0,0,0,0,0,0],"id":19,"left_children":[1,3,5,-1,-1,7,9,-1,-1,-1,-1],"loss_changes":[1.5272339E2,1.2432063E2,9.783463E0,0E0,0E0,6.8973494E0,5.049118E0,0E0,0E0,0E0,0E0],"parents":[2147483647,0,0,1,1,2,2,5,5,6,6],"right_children":[2,4,6,-1,-1,8,10,-1,-1,-1,-1],"split_conditions":[1E0,1E0,4.54985E5,1.796934E-2,-1.1523188E-2,1.49E2,3E0,-4.0412634E-3,9.291531E-3,1.7795013E-2,9.2603965E-3],"split_indices":[49,34,5,0,0,0,9,0,0,0,0],"split_type":[0,0,0,0,0,0,0,0,0,0,0],"sum_hessian":[1.7140231E2,1.0929302E2,6.210929E1,1.6105564E1,9.3187454E1,1.4466706E1,4.7642586E1,4.895957E0,9.570749E0,2.8977995E1,1.8664589E1],"tree_param":{"num_deleted":"0","num_feature":"92","num_nodes":"11","size_leaf_vector":"1"}},{"base_weights":[-1.7883858E-2,-6.836503E-1,1.1550329E0,1.6235339E-2,-1.1027443E-2,-2.0647282E-3,1.2358977E-2],"categories":[],"categories_nodes":[],"categories_segments":[],"categories_sizes":[],"default_left":[0,0,0,0,0,0,0],"id":20,"left_children":[1,3,5,-1,-1,-1,-1],"loss_changes":[1.3874792E2,1.1101074E2,7.9597855E0,0E0,0E0,0E0,0E0],"parents":[2147483647,0,0,1,1,2,2],"right_children":[2,4,6,-1,-1,-1,-1],"split_conditions":[1E0,1E0,4.36984E5,1.6235339E-2,-1.1027443E-2,-2.0647282E-3,1.2358977E-2],"split_indices":[49,34,5,0,0,0,0],"split_type":[0,0,0,0,0,0,0],"sum_hessian":[1.7681326E2,1.1335236E2,6.3460903E1,1.687712E1,9.647525E1,3.0052547E0,6.0455647E1],"tree_param":{"num_deleted":"0","num_feature":"92","num_nodes":"7","size_leaf_vector":"1"}},{"base_weights":[3.0003136E-2,-6.940788E-1,1.2989227E0,1.7061781E-2,-1.1170031E-2,-0E0,1.3701478E-2],"categories":[],"categories_nodes":[],"categories_segments":[],"categories_sizes":[],"default_left":[0,0,0,0,0,0,0],"id":21,"left_children":[1,3,5,-1,-1,-1,-1],"loss_changes":[1.6515788E2,1.1633508E2,6.3884964E0,0E0,0E0,0E0,0E0],"parents":[2147483647,0,0,1,1,2,2],"right_children":[2,4,6,-1,-1,-1,-1],"split_conditions":[1E0,1E0,1.996E3,1.7061781E-2,-1.1170031E-2,-0E0,1.3701478E-2],"split_indices":[49,34,16,0,0,0,0],"split_type":[0,0,0,0,0,0,0],"sum_hessian":[1.7800311E2,1.1315936E2,6.484375E1,1.640468E1,9.6754684E1,3.2287526E0,6.1614998E1],"tree_param":{"num_deleted":"0","num_feature":"92","num_nodes":"7","size_leaf_vector":"1"}},{"base_weights":[-3.9005417E-2,-6.615282E-1,1.1195025E0,1.6620293E-2,-1.106379E-2,1.2142386E-2,-1.0532868E-1,-1.076325E-2,8.553592E-3],"categories":[],"categories_nodes":[],"categories_segments":[],"categories_sizes":[],"default_left":[0,0,0,0,0,0,0,0,0],"id":22,"left_children":[1,3,5,-1,-1,-1,7,-1,-1],"loss_changes":[1.2483474E2,1.1786381E2,7.869568E0,0E0,0E0,0E0,4.8366966E0,0E0,0E0],"parents":[2147483647,0,0,1,1,2,2,6,6],"right_children":[2,4,6,-1,-1,-1,8,-1,-1],"split_conditions":[1E0,1E0,1E0,1.6620293E-2,-1.106379E-2,1.2142386E-2,1E0,-1.076325E-2,8.553592E-3],"split_indices":[49,34,82,0,0,0,65,0,0],"split_type":[0,0,0,0,0,0,0,0,0],"sum_hessian":[1.7223975E2,1.1261902E2,5.9620724E1,1.755408E1,9.506494E1,5.588812E1,3.7326045E0,2.1883407E0,1.5442638E0],"tree_param":{"num_deleted":"0","num_feature":"92","num_nodes":"9","size_leaf_vector":"1"}},{"base_weights":[-1.9379415E-2,-6.698566E-1,1.1862956E-2,1.618781E-2,-1.07535245E-2],"categories":[],"categories_nodes":[],"categories_segments":[],"categories_sizes":[],"default_left":[0,0,0,0,0],"id":23,"left_children":[1,3,-1,-1,-1],"loss_changes":[1.3835097E2,1.07706375E2,0E0,0E0,0E0],"parents":[2147483647,0,0,1,1],"right_children":[2,4,-1,-1,-1],"split_conditions":[1E0,1E0,1.1862956E-2,1.618781E-2,-1.07535245E-2],"split_indices":[49,34,0,0,0],"split_type":[0,0,0,0,0],"sum_hessian":[1.7558035E2,1.1462139E2,6.095896E1,1.6695242E1,9.792615E1],"tree_param":{"num_deleted":"0","num_feature":"92","num_nodes":"5","size_leaf_vector":"1"}},{"base_weights":[-2.530687E-2,-7.6419276E-1,1.1603973E0,1.50764E-2,-1.1256883E-2,1.2926079E0,4.0537658E-1,1.3695414E-2,-3.58314E-3,1.5945626E-2,-0E0],"categories":[],"categories_nodes":[],"categories_segments":[],"categories_sizes":[],"default_left":[0,0,0,0,0,0,0,0,0,0,0],"id":24,"left_children":[1,3,5,-1,-1,7,9,-1,-1,-1,-1],"loss_changes":[1.5161101E2,8.883833E1,5.053772E0,0E0,0E0,8.055611E0,6.3821497E0,0E0,0E0,0E0,0E0],"parents":[2147483647,0,0,1,1,2,2,5,5,6,6],"right_children":[2,4,6,-1,-1,8,10,-1,-1,-1,-1],"split_conditions":[1E0,1E0,1E0,1.50764E-2,-1.1256883E-2,2.3E1,5.59E3,1.3695414E-2,-3.58314E-3,1.5945626E-2,-0E0],"split_indices":[49,34,38,0,0,8,13,0,0,0,0],"split_type":[0,0,0,0,0,0,0,0,0,0,0],"sum_hessian":[1.7207686E2,1.06526764E2,6.5550095E1,1.407079E1,9.245597E1,5.4583992E1,1.0966098E1,5.2673126E1,1.9108682E0,2.6149087E0,8.35119E0],"tree_param":{"num_deleted":"0","num_feature":"92","num_nodes":"11","size_leaf_vector":"1"}},{"base_weights":[5.989718E-2,-6.846593E-1,1.2498893E0,1.526826E-2,-1.0517329E-2,1.374685E-2,4.1740113E-1,8.965061E-3,-6.30528E-3],"categories":[],"categories_nodes":[],"categories_segments":[],"categories_sizes":[],"default_left":[0,0,0,0,0,0,0,0,0],"id":25,"left_children":[1,3,5,-1,-1,-1,7,-1,-1],"loss_changes":[1.58972E2,8.978966E1,5.5396805E0,0E0,0E0,0E0,5.9281235E0,0E0,0E0],"parents":[2147483647,0,0,1,1,2,2,6,6],"right_children":[2,4,6,-1,-1,-1,8,-1,-1],"split_conditions":[1E0,1E0,1E0,1.526826E-2,-1.0517329E-2,1.374685E-2,1E0,8.965061E-3,-6.30528E-3],"split_indices":[49,34,38,0,0,0,19,0,0],"split_type":[0,0,0,0,0,0,0,0,0],"sum_hessian":[1.7769742E2,1.09104935E2,6.8592476E1,1.4963715E1,9.414122E1,5.853687E1,1.005561E1,7.43356E0,2.6220496E0],"tree_param":{"num_deleted":"0","num_feature":"92","num_nodes":"9","size_leaf_vector":"1"}},{"base_weights":[-0E0,-7.2601384E-1,1.169852E0,1.5173523E-2,-1.0728775E-2,7.1604943E-1,1.4495676E0,8.594149E-3,-4.683438E-3,1.5375599E-2,-0E0],"categories":[],"categories_nodes":[],"categories_segments":[],"categories_sizes":[],"default_left":[0,0,0,0,0,0,0,0,0,0,0],"id":26,"left_children":[1,3,5,-1,-1,7,9,-1,-1,-1,-1],"loss_changes":[1.4422467E2,8.241504E1,6.024498E0,0E0,0E0,5.1281624E0,5.186165E0,0E0,0E0,0E0,0E0],"parents":[2147483647,0,0,1,1,2,2,5,5,6,6],"right_children":[2,4,6,-1,-1,8,10,-1,-1,-1,-1],"split_conditions":[1E0,1E0,1.22248E3,1.5173523E-2,-1.0728775E-2,1.19119E3,8.613E4,8.594149E-3,-4.683438E-3,1.5375599E-2,-0E0],"split_indices":[49,34,3,0,0,3,12,0,0,0,0],"split_type":[0,0,0,0,0,0,0,0,0,0,0],"sum_hessian":[1.68635E2,1.0432522E2,6.430978E1,1.3402276E1,9.092294E1,2.637603E1,3.7933746E1,2.4225317E1,2.1507137E0,3.583813E1,2.095615E0],"tree_param":{"num_deleted":"0","num_feature":"92","num_nodes":"11","size_leaf_vector":"1"}},{"base_weights":[-4.6581E-3,-6.574694E-1,1.1780034E0,1.5409471E-2,-1.0388792E-2,-0E0,1.2489987E-2],"categories":[],"categories_nodes":[],"categories_segments":[],"categories_sizes":[],"default_left":[0,0,0,0,0,0,0],"id":27,"left_children":[1,3,5,-1,-1,-1,-1],"loss_changes":[1.3670288E2,9.692244E1,5.742317E0,0E0,0E0,0E0,0E0],"parents":[2147483647,0,0,1,1,2,2],"right_children":[2,4,6,-1,-1,-1,-1],"split_conditions":[1E0,1E0,1.996E3,1.5409471E-2,-1.0388792E-2,-0E0,1.2489987E-2],"split_indices":[49,34,16,0,0,0,0],"split_type":[0,0,0,0,0,0,0],"sum_hessian":[1.7625316E2,1.141411E2,6.211207E1,1.6307276E1,9.783382E1,3.2507539E0,5.8861313E1],"tree_param":{"num_deleted":"0","num_feature":"92","num_nodes":"7","size_leaf_vector":"1"}},{"base_weights":[4.3224182E-2,-6.3902247E-1,1.2364237E0,1.6625654E-2,-1.0859643E-2,1.3988687E0,1.3818575E-1,1.4919937E-2,-1.422757E-3,7.9243565E-3,-1.1402794E-2],"categories":[],"categories_nodes":[],"categories_segments":[],"categories_sizes":[],"default_left":[0,0,0,0,0,0,0,0,0,0,0],"id":28,"left_children":[1,3,5,-1,-1,7,9,-1,-1,-1,-1],"loss_changes":[1.40872E2,1.13298965E2,1.0038078E1,0E0,0E0,8.905174E0,8.213102E0,0E0,0E0,0E0,0E0],"parents":[2147483647,0,0,1,1,2,2,5,5,6,6],"right_children":[2,4,6,-1,-1,8,10,-1,-1,-1,-1],"split_conditions":[1E0,1E0,1E0,1.6625654E-2,-1.0859643E-2,2.3E1,1E0,1.4919937E-2,-1.422757E-3,7.9243565E-3,-1.1402794E-2],"split_indices":[49,34,38,0,0,8,19,0,0,0,0],"split_type":[0,0,0,0,0,0,0,0,0,0,0],"sum_hessian":[1.712518E2,1.0876312E2,6.2488678E1,1.7140072E1,9.162305E1,5.3714832E1,8.773846E0,5.1111534E1,2.603298E0,6.336587E0,2.4372592E0],"tree_param":{"num_deleted":"0","num_feature":"92","num_nodes":"11","size_leaf_vector":"1"}},{"base_weights":[4.071085E-2,-6.066095E-1,1.136961E0,1.6790358E-2,-1.0234881E-2,1.26452455E-2,3.1621143E-1,1.4054386E-2,-2.2893238E-3],"categories":[],"categories_nodes":[],"categories_segments":[],"categories_sizes":[],"default_left":[0,0,0,0,0,0,0,0,0],"id":29,"left_children":[1,3,5,-1,-1,-1,7,-1,-1],"loss_changes":[1.228565E2,1.0367241E2,5.360962E0,0E0,0E0,0E0,7.1598015E0,0E0,0E0],"parents":[2147483647,0,0,1,1,2,2,6,6],"right_children":[2,4,6,-1,-1,-1,8,-1,-1],"split_conditions":[1E0,1E0,1E0,1.6790358E-2,-1.0234881E-2,1.26452455E-2,5.59E3,1.4054386E-2,-2.2893238E-3],"split_indices":[49,34,38,0,0,0,13,0,0],"split_type":[0,0,0,0,0,0,0,0,0],"sum_hessian":[1.7132056E2,1.0748652E2,6.3834034E1,1.6013918E1,9.14726E1,5.4190197E1,9.643838E0,3.3149343E0,6.328904E0],"tree_param":{"num_deleted":"0","num_feature":"92","num_nodes":"9","size_leaf_vector":"1"}},{"base_weights":[-1.47921145E-2,-6.9598854E-1,1.0899304E0,1.50282895E-2,-1.0619148E-2,1.229242E0,3.2993793E-1,1.2992118E-2,-1.5460631E-4,8.629785E-3,-5.306455E-3],"categories":[],"categories_nodes":[],"categories_segments":[],"categories_sizes":[],"default_left":[0,0,0,0,0,0,0,0,0,0,0],"id":30,"left_children":[1,3,5,-1,-1,7,9,-1,-1,-1,-1],"loss_changes":[1.3062747E2,8.761079E1,5.604828E0,0E0,0E0,5.6964264E0,5.990459E0,0E0,0E0,0E0,0E0],"parents":[2147483647,0,0,1,1,2,2,5,5,6,6],"right_children":[2,4,6,-1,-1,8,10,-1,-1,-1,-1],"split_conditions":[1E0,1E0,1E0,1.50282895E-2,-1.0619148E-2,2.3E1,1E0,1.2992118E-2,-1.5460631E-4,8.629785E-3,-5.306455E-3],"split_indices":[49,34,38,0,0,8,19,0,0,0,0],"split_type":[0,0,0,0,0,0,0,0,0,0,0],"sum_hessian":[1.7266208E2,1.0735288E2,6.5309204E1,1.4751284E1,9.260159E1,5.405911E1,1.12500925E1,5.169979E1,2.359316E0,7.4597373E0,3.790355E0],"tree_param":{"num_deleted":"0","num_feature":"92","num_nodes":"11","size_leaf_vector":"1"}},{"base_weights":[-5.683177E-2,-7.181118E-1,1.0775588E0,1.44847995E-2,-1.0849425E-2,5.75831E-1,1.2854615E0,-8.561003E-3,9.216515E-3,1.5720656E-2,5.9463144E-3],"categories":[],"categories_nodes":[],"categories_segments":[],"categories_sizes":[],"default_left":[0,0,0,0,0,0,0,0,0,0,0],"id":31,"left_children":[1,3,5,-1,-1,7,9,-1,-1,-1,-1],"loss_changes":[1.3131284E2,8.910666E1,4.886711E0,0E0,0E0,1.0949754E1,6.529541E0,0E0,0E0,0E0,0E0],"parents":[2147483647,0,0,1,1,2,2,5,5,6,6],"right_children":[2,4,6,-1,-1,8,10,-1,-1,-1,-1],"split_conditions":[1E0,1E0,4.56602E5,1.44847995E-2,-1.0849425E-2,2E3,6.0522E5,-8.561003E-3,9.216515E-3,1.5720656E-2,5.9463144E-3],"split_indices":[49,34,5,0,0,16,5,0,0,0,0],"split_type":[0,0,0,0,0,0,0,0,0,0,0],"sum_hessian":[1.7408029E2,1.10521255E2,6.3559036E1,1.5444833E1,9.507642E1,2.0343065E1,4.321597E1,3.3692186E0,1.6973846E1,2.9229574E1,1.3986396E1],"tree_param":{"num_deleted":"0","num_feature":"92","num_nodes":"11","size_leaf_vector":"1"}},{"base_weights":[6.9591645E-3,-6.282936E-1,1.0752457E0,1.4771432E-2,-1.0402605E-2,1.1985935E0,-0E0,3.7615523E-3,1.4066057E-2,-1.1640954E-2,6.095574E-3],"categories":[],"categories_nodes":[],"categories_segments":[],"categories_sizes":[],"default_left":[0,0,0,0,0,0,0,0,0,0,0],"id":32,"left_children":[1,3,5,-1,-1,7,9,-1,-1,-1,-1],"loss_changes":[1.1605553E2,9.30811E1,9.198662E0,0E0,0E0,8.290749E0,5.568627E0,0E0,0E0,0E0,0E0],"parents":[2147483647,0,0,1,1,2,2,5,5,6,6],"right_children":[2,4,6,-1,-1,8,10,-1,-1,-1,-1],"split_conditions":[1E0,1E0,6.13936E5,1.4771432E-2,-1.0402605E-2,4.47274E5,2.69E4,3.7615523E-3,1.4066057E-2,-1.1640954E-2,6.095574E-3],"split_indices":[49,34,5,0,0,5,6,0,0,0,0],"split_type":[0,0,0,0,0,0,0,0,0,0,0],"sum_hessian":[1.6925407E2,1.0588541E2,6.336867E1,1.6770304E1,8.9115105E1,5.7274105E1,6.0945635E0,1.2622475E1,4.465163E1,2.225961E0,3.8686023E0],"tree_param":{"num_deleted":"0","num_feature":"92","num_nodes":"11","size_leaf_vector":"1"}},{"base_weights":[-6.26846E-2,-7.046331E-1,1.0005335E0,1.5137969E-2,-1.1215292E-2,-3.4873353E-3,1.0562447E-2],"categories":[],"categories_nodes":[],"categories_segments":[],"categories_sizes":[],"default_left":[0,0,0,0,0,0,0],"id":33,"left_children":[1,3,5,-1,-1,-1,-1],"loss_changes":[1.181158E2,1.0114468E2,5.620102E0,0E0,0E0,0E0,0E0],"parents":[2147483647,0,0,1,1,2,2],"right_children":[2,4,6,-1,-1,-1,-1],"split_conditions":[1E0,1E0,1.996E3,1.5137969E-2,-1.1215292E-2,-3.4873353E-3,1.0562447E-2],"split_indices":[49,34,16,0,0,0,0],"split_type":[0,0,0,0,0,0,0],"sum_hessian":[1.7205342E2,1.0783568E2,6.421775E1,1.6518684E1,9.131699E1,1.9021628E0,6.2315586E1],"tree_param":{"num_deleted":"0","num_feature":"92","num_nodes":"7","size_leaf_vector":"1"}},{"base_weights":[-8.107705E-3,-6.806356E-1,1.0534562E0,1.337372E-2,-9.99705E-3,1.1983246E0,1.7859416E-1,1.2742966E-2,-0E0,1.249792E-2,-2.2299385E-3],"categories":[],"categories_nodes":[],"categories_segments":[],"categories_sizes":[],"default_left":[0,0,0,0,0,0,0,0,0,0,0],"id":34,"left_children":[1,3,5,-1,-1,7,9,-1,-1,-1,-1],"loss_changes":[1.2183281E2,6.8296715E1,7.230301E0,0E0,0E0,5.5125046E0,5.571931E0,0E0,0E0,0E0,0E0],"parents":[2147483647,0,0,1,1,2,2,5,5,6,6],"right_children":[2,4,6,-1,-1,8,10,-1,-1,-1,-1],"split_conditions":[1E0,1E0,1E0,1.337372E-2,-9.99705E-3,2.3E1,5.59E3,1.2742966E-2,-0E0,1.249792E-2,-2.2299385E-3],"split_indices":[49,34,38,0,0,8,13,0,0,0,0],"split_type":[0,0,0,0,0,0,0,0,0,0,0],"sum_hessian":[1.6973047E2,1.0445908E2,6.527138E1,1.3673618E1,9.078546E1,5.5091667E1,1.0179712E1,5.2038555E1,3.053114E0,2.89004E0,7.289672E0],"tree_param":{"num_deleted":"0","num_feature":"92","num_nodes":"11","size_leaf_vector":"1"}},{"base_weights":[3.2953937E-2,-6.137377E-1,1.096077E0,1.4007423E-2,-1.0057153E-2,1.2273458E-2,3.3146748E-1,-4.2283724E-4,1.5173092E-2],"categories":[],"categories_nodes":[],"categories_segments":[],"categories_sizes":[],"default_left":[0,0,0,0,0,0,0,0,0],"id":35,"left_children":[1,3,5,-1,-1,-1,7,-1,-1],"loss_changes":[1.2382352E2,8.849228E1,5.480606E0,0E0,0E0,0E0,6.281875E0,0E0,0E0],"parents":[2147483647,0,0,1,1,2,2,6,6],"right_children":[2,4,6,-1,-1,-1,8,-1,-1],"split_conditions":[1E0,1E0,1E0,1.4007423E-2,-1.0057153E-2,1.2273458E-2,2E1,-4.2283724E-4,1.5173092E-2],"split_indices":[49,34,38,0,0,0,8,0,0],"split_type":[0,0,0,0,0,0,0,0,0],"sum_hessian":[1.7832393E2,1.1062862E2,6.769531E1,1.7451668E1,9.317695E1,5.6643585E1,1.1051728E1,8.417533E0,2.6341949E0],"tree_param":{"num_deleted":"0","num_feature":"92","num_nodes":"9","size_leaf_vector":"1"}},{"base_weights":[5.1389993E-3,-6.449877E-1,1.1000725E0,1.365154E-2,-9.9204965E-3,1.5639617E-3,1.2138559E0,1.3326825E-2,1.7672214E-3],"categories":[],"categories_nodes":[],"categories_segments":[],"categories_sizes":[],"default_left":[0,0,0,0,0,0,0,0,0],"id":36,"left_children":[1,3,5,-1,-1,-1,7,-1,-1],"loss_changes":[1.2150144E2,7.483768E1,5.7498627E0,0E0,0E0,0E0,5.6917267E0,0E0,0E0],"parents":[2147483647,0,0,1,1,2,2,6,6],"right_children":[2,4,6,-1,-1,-1,8,-1,-1],"split_conditions":[1E0,1E0,4.43522E5,1.365154E-2,-9.9204965E-3,1.5639617E-3,6.13936E5,1.3326825E-2,1.7672214E-3],"split_indices":[49,34,5,0,0,0,5,0,0],"split_type":[0,0,0,0,0,0,0,0,0],"sum_hessian":[1.6893826E2,1.0575606E2,6.318221E1,1.4988367E1,9.076769E1,7.640472E0,5.5541737E1,4.90479E1,6.4938393E0],"tree_param":{"num_deleted":"0","num_feature":"92","num_nodes":"9","size_leaf_vector":"1"}},{"base_weights":[-6.7024305E-4,-5.9995306E-1,1.0392128E0,1.4236028E-2,-9.932385E-3,-1.2611762E-3,1.1027469E-2],"categories":[],"categories_nodes":[],"categories_segments":[],"categories_sizes":[],"default_left":[0,0,0,0,0,0,0],"id":37,"left_children":[1,3,5,-1,-1,-1,-1],"loss_changes":[1.0709154E2,8.796759E1,5.421982E0,0E0,0E0,0E0,0E0],"parents":[2147483647,0,0,1,1,2,2],"right_children":[2,4,6,-1,-1,-1,-1],"split_conditions":[1E0,1E0,1.996E3,1.4236028E-2,-9.932385E-3,-1.2611762E-3,1.1027469E-2],"split_indices":[49,34,16,0,0,0,0],"split_type":[0,0,0,0,0,0,0],"sum_hessian":[1.710589E2,1.0912944E2,6.1929462E1,1.7186838E1,9.19426E1,2.5863333E0,5.934313E1],"tree_param":{"num_deleted":"0","num_feature":"92","num_nodes":"7","size_leaf_vector":"1"}},{"base_weights":[2.8523963E-2,-5.81462E-1,1.0231813E-2,1.4106979E-2,-9.8934E-3],"categories":[],"categories_nodes":[],"categories_segments":[],"categories_sizes":[],"default_left":[0,0,0,0,0],"id":38,"left_children":[1,3,-1,-1,-1],"loss_changes":[1.0356674E2,8.596576E1,0E0,0E0,0E0],"parents":[2147483647,0,0,1,1],"right_children":[2,4,-1,-1,-1],"split_conditions":[1E0,1E0,1.0231813E-2,1.4106979E-2,-9.8934E-3],"split_indices":[49,34,0,0,0],"split_type":[0,0,0,0,0],"sum_hessian":[1.6889748E2,1.04413185E2,6.44843E1,1.7176575E1,8.723661E1],"tree_param":{"num_deleted":"0","num_feature":"92","num_nodes":"5","size_leaf_vector":"1"}},{"base_weights":[-1.0635502E-2,-6.376501E-1,9.9054873E-1,1.3515069E-2,-9.86541E-3,1.08507825E-2,-0E0,1.0584174E-2,-8.73055E-3],"categories":[],"categories_nodes":[],"categories_segments":[],"categories_sizes":[],"default_left":[0,0,0,0,0,0,0,0,0],"id":39,"left_children":[1,3,5,-1,-1,-1,7,-1,-1],"loss_changes":[9.858097E1,6.808601E1,5.4644165E0,0E0,0E0,0E0,6.2029104E0,0E0,0E0],"parents":[2147483647,0,0,1,1,2,2,6,6],"right_children":[2,4,6,-1,-1,-1,8,-1,-1],"split_conditions":[1E0,1E0,1E0,1.3515069E-2,-9.86541E-3,1.08507825E-2,2.003E3,1.0584174E-2,-8.73055E-3],"split_indices":[49,34,63,0,0,0,16,0,0],"split_type":[0,0,0,0,0,0,0,0,0],"sum_hessian":[1.561441E2,9.659735E1,5.9546753E1,1.3831482E1,8.276587E1,5.415704E1,5.3897114E0,2.4562314E0,2.9334803E0],"tree_param":{"num_deleted":"0","num_feature":"92","num_nodes":"9","size_leaf_vector":"1"}},{"base_weights":[4.1701812E-2,-6.0404265E-1,1.0842506E-2,1.3457866E-2,-9.679132E-3],"categories":[],"categories_nodes":[],"categories_segments":[],"categories_sizes":[],"default_left":[0,0,0,0,0],"id":40,"left_children":[1,3,-1,-1,-1],"loss_changes":[1.1526875E2,7.5079544E1,0E0,0E0,0E0],"parents":[2147483647,0,0,1,1],"right_children":[2,4,-1,-1,-1],"split_conditions":[1E0,1E0,1.0842506E-2,1.3457866E-2,-9.679132E-3],"split_indices":[49,34,0,0,0],"split_type":[0,0,0,0,0],"sum_hessian":[1.6943561E2,1.0437288E2,6.506274E1,1.5831055E1,8.8541824E1],"tree_param":{"num_deleted":"0","num_feature":"92","num_nodes":"5","size_leaf_vector":"1"}},{"base_weights":[7.942078E-3,-6.1106455E-1,9.715705E-1,1.475427E-2,-1.0329578E-2,1.1019101E0,2.052568E-1,1.1619595E-2,-2.996688E-3,7.571376E-3,-5.881268E-3],"categories":[],"categories_nodes":[],"categories_segments":[],"categories_sizes":[],"default_left":[0,0,0,0,0,0,0,0,0,0,0],"id":41,"left_children":[1,3,5,-1,-1,7,9,-1,-1,-1,-1],"loss_changes":[1.0148929E2,9.123485E1,5.5929527E0,0E0,0E0,5.569481E0,5.3589563E0,0E0,0E0,0E0,0E0],"parents":[2147483647,0,0,1,1,2,2,5,5,6,6],"right_children":[2,4,6,-1,-1,8,10,-1,-1,-1,-1],"split_conditions":[1E0,1E0,1E0,1.475427E-2,-1.0329578E-2,2.3E1,1E0,1.1619595E-2,-2.996688E-3,7.571376E-3,-5.881268E-3],"split_indices":[49,34,38,0,0,8,19,0,0,0,0],"split_type":[0,0,0,0,0,0,0,0,0,0,0],"sum_hessian":[1.6842255E2,1.0223987E2,6.618268E1,1.6639456E1,8.560042E1,5.5522083E1,1.0660598E1,5.3836704E1,1.6853782E0,6.83681E0,3.8237882E0],"tree_param":{"num_deleted":"0","num_feature":"92","num_nodes":"11","size_leaf_vector":"1"}},{"base_weights":[4.2126426E-3,-6.54612E-1,1.0243676E-2,1.2531993E-2,-1.0131071E-2],"categories":[],"categories_nodes":[],"categories_segments":[],"categories_sizes":[],"default_left":[0,0,0,0,0],"id":42,"left_children":[1,3,-1,-1,-1],"loss_changes":[1.1460181E2,7.105315E1,0E0,0E0,0E0],"parents":[2147483647,0,0,1,1],"right_children":[2,4,-1,-1,-1],"split_conditions":[1E0,1E0,1.0243676E-2,1.2531993E-2,-1.0131071E-2],"split_indices":[49,34,0,0,0],"split_type":[0,0,0,0,0],"sum_hessian":[1.6882857E2,1.0229506E2,6.65335E1,1.561072E1,8.668434E1],"tree_param":{"num_deleted":"0","num_feature":"92","num_nodes":"5","size_leaf_vector":"1"}},{"base_weights":[-3.427925E-2,-6.023526E-1,9.59818E-1,1.2880876E-2,-9.77619E-3,1.0508564E-2,-5.9183576E-4],"categories":[],"categories_nodes":[],"categories_segments":[],"categories_sizes":[],"default_left":[0,0,0,0,0,0,0],"id":43,"left_children":[1,3,5,-1,-1,-1,-1],"loss_changes":[9.363541E1,7.595657E1,6.317215E0,0E0,0E0,0E0,0E0],"parents":[2147483647,0,0,1,1,2,2],"right_children":[2,4,6,-1,-1,-1,-1],"split_conditions":[1E0,1E0,1E0,1.2880876E-2,-9.77619E-3,1.0508564E-2,-5.9183576E-4],"split_indices":[49,34,82,0,0,0,0],"split_type":[0,0,0,0,0,0,0],"sum_hessian":[1.6495514E2,1.05590485E2,5.9364662E1,1.6912716E1,8.8677765E1,5.5122417E1,4.2422447E0],"tree_param":{"num_deleted":"0","num_feature":"92","num_nodes":"7","size_leaf_vector":"1"}},{"base_weights":[1.0435897E-2,1.2938229E-2,-1.8320577E-1,1.5350257E-1,-9.791505E-3,6.649854E-3,-9.11091E-3],"categories":[],"categories_nodes":[],"categories_segments":[],"categories_sizes":[],"default_left":[0,0,0,0,0,0,0],"id":44,"left_children":[1,-1,3,5,-1,-1,-1],"loss_changes":[4.1236637E1,0E0,3.8460907E1,5.410615E1,0E0,0E0,0E0],"parents":[2147483647,0,0,2,2,3,3],"right_children":[2,-1,4,6,-1,-1,-1],"split_conditions":[1E0,1.2938229E-2,1E0,1E0,-9.791505E-3,6.649854E-3,-9.11091E-3],"split_indices":[34,0,50,51,0,0,0],"split_type":[0,0,0,0,0,0,0],"sum_hessian":[1.6146962E2,2.1172861E1,1.4029677E2,9.832426E1,4.197251E1,6.703313E1,3.1291126E1],"tree_param":{"num_deleted":"0","num_feature":"92","num_nodes":"7","size_leaf_vector":"1"}},{"base_weights":[-3.6735527E-2,-6.63142E-1,9.112206E-1,1.2362162E-2,-1.0370096E-2,-2.8895864E-3,9.7940296E-1,1.2429982E-3,1.0952244E-2],"categories":[],"categories_nodes":[],"categories_segments":[],"categories_sizes":[],"default_left":[0,0,0,0,0,0,0,0,0],"id":45,"left_children":[1,3,5,-1,-1,-1,7,-1,-1],"loss_changes":[9.932594E1,7.264011E1,6.0965652E0,0E0,0E0,0E0,5.316017E0,0E0,0E0],"parents":[2147483647,0,0,1,1,2,2,6,6],"right_children":[2,4,6,-1,-1,-1,8,-1,-1],"split_conditions":[1E0,1E0,1.996E3,1.2362162E-2,-1.0370096E-2,-2.8895864E-3,4.43522E5,1.2429982E-3,1.0952244E-2],"split_indices":[49,34,16,0,0,0,5,0,0],"split_type":[0,0,0,0,0,0,0,0,0],"sum_hessian":[1.6626657E2,1.006841E2,6.558248E1,1.5999203E1,8.468489E1,2.8486025E0,6.273388E1,8.380596E0,5.4353283E1],"tree_param":{"num_deleted":"0","num_feature":"92","num_nodes":"9","size_leaf_vector":"1"}},{"base_weights":[-1.4036752E-2,-6.567341E-1,9.734087E-1,1.247154E-2,-9.990313E-3,8.8198285E-4,1.077391E-2],"categories":[],"categories_nodes":[],"categories_segments":[],"categories_sizes":[],"default_left":[0,0,0,0,0,0,0],"id":46,"left_children":[1,3,5,-1,-1,-1,-1],"loss_changes":[1.06125435E2,6.706192E1,5.1455765E0,0E0,0E0,0E0,0E0],"parents":[2147483647,0,0,1,1,2,2],"right_children":[2,4,6,-1,-1,-1,-1],"split_conditions":[1E0,1E0,4.43522E5,1.247154E-2,-9.990313E-3,8.8198285E-4,1.077391E-2],"split_indices":[49,34,5,0,0,0,0],"split_type":[0,0,0,0,0,0,0],"sum_hessian":[1.6628581E2,1.0129643E2,6.498937E1,1.4857779E1,8.643865E1,7.680805E0,5.730857E1],"tree_param":{"num_deleted":"0","num_feature":"92","num_nodes":"7","size_leaf_vector":"1"}},{"base_weights":[6.6094697E-3,-5.673949E-1,9.7136134E-1,1.2719147E-2,-9.570788E-3,3.0354127E-1,1.1566309E-2,-4.603234E-3,8.56812E-3],"categories":[],"categories_nodes":[],"categories_segments":[],"categories_sizes":[],"default_left":[0,0,0,0,0,0,0,0,0],"id":47,"left_children":[1,3,5,-1,-1,7,-1,-1,-1],"loss_changes":[9.364392E1,7.5986626E1,6.56588E0,0E0,0E0,7.077544E0,0E0,0E0,0E0],"parents":[2147483647,0,0,1,1,2,2,5,5],"right_children":[2,4,6,-1,-1,8,-1,-1,-1],"split_conditions":[1E0,1E0,4.50184E5,1.2719147E-2,-9.570788E-3,2.006E3,1.1566309E-2,-4.603234E-3,8.56812E-3],"split_indices":[49,34,5,0,0,16,0,0,0],"split_type":[0,0,0,0,0,0,0,0,0],"sum_hessian":[1.6729155E2,1.0458798E2,6.2703575E1,1.7707857E1,8.688012E1,1.4826841E1,4.7876736E1,5.7300816E0,9.09676E0],"tree_param":{"num_deleted":"0","num_feature":"92","num_nodes":"9","size_leaf_vector":"1"}},{"base_weights":[2.0627826E-2,-5.8965814E-1,9.3618125E-1,1.3777418E-2,-9.7753E-1,1.081945E-2,-0E0,-1.0430724E-2,-0E0],"categories":[],"categories_nodes":[],"categories_segments":[],"categories_sizes":[],"default_left":[0,0,0,0,0,0,0,0,0],"id":48,"left_children":[1,3,5,-1,7,-1,-1,-1,-1],"loss_changes":[9.292846E1,7.6184875E1,8.976681E0,0E0,5.100342E0,0E0,0E0,0E0,0E0],"parents":[2147483647,0,0,1,1,2,2,4,4],"right_children":[2,4,6,-1,8,-1,-1,-1,-1],"split_conditions":[1E0,1E0,1E0,1.3777418E-2,1E0,1.081945E-2,-0E0,-1.0430724E-2,-0E0],"split_indices":[49,34,38,0,91,0,0,0,0],"split_type":[0,0,0,0,0,0,0,0,0],"sum_hessian":[1.645876E2,9.84266E1,6.616101E1,1.5633806E1,8.279279E1,5.7041103E1,9.119906E0,7.732417E1,5.468617E0],"tree_param":{"num_deleted":"0","num_feature":"92","num_nodes":"9","size_leaf_vector":"1"}},{"base_weights":[-0E0,-6.19729E-1,9.575101E-3,1.1600633E-2,-9.461396E-3],"categories":[],"categories_nodes":[],"categories_segments":[],"categories_sizes":[],"default_left":[0,0,0,0,0],"id":49,"left_children":[1,3,-1,-1,-1],"loss_changes":[9.956419E1,5.954861E1,0E0,0E0,0E0],"parents":[2147483647,0,0,1,1],"right_children":[2,4,-1,-1,-1],"split_conditions":[1E0,1E0,9.575101E-3,1.1600633E-2,-9.461396E-3],"split_indices":[49,34,0,0,0],"split_type":[0,0,0,0,0],"sum_hessian":[1.6631387E2,1.00901596E2,6.5412285E1,1.5041838E1,8.585976E1],"tree_param":{"num_deleted":"0","num_feature":"92","num_nodes":"5","size_leaf_vector":"1"}},{"base_weights":[-2.7753713E-2,-5.525141E-1,8.526669E-1,1.398225E-2,-9.627854E-3,3.4166595E-1,1.1706707E0,5.365062E-3,-8.255592E-3,1.2696229E-2,-3.2230718E-3],"categories":[],"categories_nodes":[],"categories_segments":[],"categories_sizes":[],"default_left":[0,0,0,0,0,0,0,0,0,0,0],"id":50,"left_children":[1,3,5,-1,-1,7,9,-1,-1,-1,-1],"loss_changes":[7.586265E1,8.352074E1,8.570301E0,0E0,0E0,5.803668E0,6.3297386E0,0E0,0E0,0E0,0E0],"parents":[2147483647,0,0,1,1,2,2,5,5,6,6],"right_children":[2,4,6,-1,-1,8,10,-1,-1,-1,-1],"split_conditions":[1E0,1E0,1.22248E3,1.398225E-2,-9.627854E-3,6.13936E5,8.613E4,5.365062E-3,-8.255592E-3,1.2696229E-2,-3.2230718E-3],"split_indices":[49,34,3,0,0,5,12,0,0,0,0],"split_type":[0,0,0,0,0,0,0,0,0,0,0],"sum_hessian":[1.6336256E2,1.0301551E2,6.0347046E1,1.7327541E1,8.5687965E1,2.4526342E1,3.58207E1,2.1842518E1,2.6838253E0,3.413447E1,1.6862328E0],"tree_param":{"num_deleted":"0","num_feature":"92","num_nodes":"11","size_leaf_vector":"1"}},{"base_weights":[-2.4021943E-3,-5.942496E-1,8.786626E-3,1.1772252E-2,-9.10978E-3],"categories":[],"categories_nodes":[],"categories_segments":[],"categories_sizes":[],"default_left":[0,0,0,0,0],"id":51,"left_children":[1,3,-1,-1,-1],"loss_changes":[8.570575E1,5.6067368E1,0E0,0E0,0E0],"parents":[2147483647,0,0,1,1],"right_children":[2,4,-1,-1,-1],"split_conditions":[1E0,1E0,8.786626E-3,1.1772252E-2,-9.10978E-3],"split_indices":[49,34,0,0,0],"split_type":[0,0,0,0,0],"sum_hessian":[1.63457E2,9.838832E1,6.506868E1,1.4314152E1,8.4074165E1],"tree_param":{"num_deleted":"0","num_feature":"92","num_nodes":"5","size_leaf_vector":"1"}},{"base_weights":[-0E0,-5.6554216E-1,8.502226E-1,1.45941125E-2,-9.632313E-3,-0E0,9.812941E-1,-6.7775464E-3,9.830855E-3,3.3012908E-3,1.1823309E-2],"categories":[],"categories_nodes":[],"categories_segments":[],"categories_sizes":[],"default_left":[0,0,0,0,0,0,0,0,0,0,0],"id":52,"left_children":[1,3,5,-1,-1,7,9,-1,-1,-1,-1],"loss_changes":[7.883707E1,7.9842094E1,7.591114E0,0E0,0E0,6.396171E0,6.133625E0,0E0,0E0,0E0,0E0],"parents":[2147483647,0,0,1,1,2,2,5,5,6,6],"right_children":[2,4,6,-1,-1,8,10,-1,-1,-1,-1],"split_conditions":[1E0,1E0,4.43522E5,1.45941125E-2,-9.632313E-3,2E0,6.27E3,-6.7775464E-3,9.830855E-3,3.3012908E-3,1.1823309E-2],"split_indices":[49,34,5,0,0,10,14,0,0,0,0],"split_type":[0,0,0,0,0,0,0,0,0,0,0],"sum_hessian":[1.6266484E2,9.781408E1,6.485075E1,1.5478205E1,8.233588E1,8.444899E0,5.6405857E1,5.296693E0,3.1482053E0,1.4548845E1,4.185701E1],"tree_param":{"num_deleted":"0","num_feature":"92","num_nodes":"11","size_leaf_vector":"1"}},{"base_weights":[2.0144382E-2,-5.8521754E-1,9.539415E-1,1.1946569E-2,-9.760672E-3,-7.699915E-4,1.0216757E-2],"categories":[],"categories_nodes":[],"categories_segments":[],"categories_sizes":[],"default_left":[0,0,0,0,0,0,0],"id":53,"left_children":[1,3,5,-1,-1,-1,-1],"loss_changes":[9.273884E1,6.932568E1,5.2521896E0,0E0,0E0,0E0,0E0],"parents":[2147483647,0,0,1,1,2,2],"right_children":[2,4,6,-1,-1,-1,-1],"split_conditions":[1E0,1E0,1.996E3,1.1946569E-2,-9.760672E-3,-7.699915E-4,1.0216757E-2],"split_indices":[49,34,16,0,0,0,0],"split_type":[0,0,0,0,0,0,0],"sum_hessian":[1.6230647E2,9.815126E1,6.415522E1,1.7103724E1,8.104754E1,3.2981048E0,6.0857113E1],"tree_param":{"num_deleted":"0","num_feature":"92","num_nodes":"7","size_leaf_vector":"1"}},{"base_weights":[-3.3883985E-2,-5.748486E-1,8.388634E-1,1.24846455E-2,-9.222444E-3,1.0140717E0,2.435371E-1,-0E0,1.1273052E-2,-1.31482035E-2,6.5611172E-3],"categories":[],"categories_nodes":[],"categories_segments":[],"categories_sizes":[],"default_left":[0,0,0,0,0,0,0,0,0,0,0],"id":54,"left_children":[1,3,5,-1,-1,7,9,-1,-1,-1,-1],"loss_changes":[7.585429E1,6.3797478E1,5.3170586E0,0E0,0E0,5.5373077E0,1.0166879E1,0E0,0E0,0E0,0E0],"parents":[2147483647,0,0,1,1,2,2,5,5,6,6],"right_children":[2,4,6,-1,-1,8,10,-1,-1,-1,-1],"split_conditions":[1E0,1E0,1E0,1.24846455E-2,-9.222444E-3,-6.05E4,6.27E3,-0E0,1.1273052E-2,-1.31482035E-2,6.5611172E-3],"split_indices":[49,34,72,0,0,7,14,0,0,0,0],"split_type":[0,0,0,0,0,0,0,0,0,0,0],"sum_hessian":[1.5976086E2,9.926999E1,6.049088E1,1.5289136E1,8.398086E1,4.5456085E1,1.5034796E1,4.4390473E0,4.1017036E1,2.4884162E0,1.2546379E1],"tree_param":{"num_deleted":"0","num_feature":"92","num_nodes":"11","size_leaf_vector":"1"}},{"base_weights":[-1.6621005E-2,-5.6163955E-1,8.3434325E-1,1.2119975E-2,-9.209505E-3,9.3683E-3,-1.6812496E-3],"categories":[],"categories_nodes":[],"categories_segments":[],"categories_sizes":[],"default_left":[0,0,0,0,0,0,0],"id":55,"left_children":[1,3,5,-1,-1,-1,-1],"loss_changes":[7.651496E1,6.508513E1,7.234268E0,0E0,0E0,0E0,0E0],"parents":[2147483647,0,0,1,1,2,2],"right_children":[2,4,6,-1,-1,-1,-1],"split_conditions":[1E0,1E0,6.13936E5,1.2119975E-2,-9.209505E-3,9.3683E-3,-1.6812496E-3],"split_indices":[49,34,5,0,0,0,0],"split_type":[0,0,0,0,0,0,0],"sum_hessian":[1.6410019E2,1.00679E2,6.342118E1,1.6366358E1,8.4312645E1,5.8225056E1,5.196126E0],"tree_param":{"num_deleted":"0","num_feature":"92","num_nodes":"7","size_leaf_vector":"1"}},{"base_weights":[-2.4575818E-2,-6.0834736E-1,8.2468045E-1,1.1271343E-2,-9.358589E-3,4.4173697E-1,1.0870599E0,5.8535644E-4,1.0698486E-2,1.2080182E-2,-5.141052E-3],"categories":[],"categories_nodes":[],"categories_segments":[],"categories_sizes":[],"default_left":[0,0,0,0,0,0,0,0,0,0,0],"id":56,"left_children":[1,3,5,-1,-1,7,9,-1,-1,-1,-1],"loss_changes":[7.786747E1,5.3830433E1,4.9875526E0,0E0,0E0,5.9063363E0,7.9088974E0,0E0,0E0,0E0,0E0],"parents":[2147483647,0,0,1,1,2,2,5,5,6,6],"right_children":[2,4,6,-1,-1,8,10,-1,-1,-1,-1],"split_conditions":[1E0,1E0,1.22248E3,1.1271343E-2,-9.358589E-3,1E0,6.144E4,5.8535644E-4,1.0698486E-2,1.2080182E-2,-5.141052E-3],"split_indices":[49,34,3,0,0,77,15,0,0,0,0],"split_type":[0,0,0,0,0,0,0,0,0,0,0],"sum_hessian":[1.5607668E2,9.310398E1,6.2972683E1,1.4183475E1,7.892051E1,2.741774E1,3.5554943E1,1.817507E1,9.24267E0,3.3620777E1,1.934168E0],"tree_param":{"num_deleted":"0","num_feature":"92","num_nodes":"11","size_leaf_vector":"1"}},{"base_weights":[-6.1388966E-2,-6.0090256E-1,7.721916E-1,1.1351437E-2,-9.251865E-3,9.068446E-3,2.0899394E-4],"categories":[],"categories_nodes":[],"categories_segments":[],"categories_sizes":[],"default_left":[0,0,0,0,0,0,0],"id":57,"left_children":[1,3,5,-1,-1,-1,-1],"loss_changes":[7.148684E1,5.5217487E1,5.602066E0,0E0,0E0,0E0,0E0],"parents":[2147483647,0,0,1,1,2,2],"right_children":[2,4,6,-1,-1,-1,-1],"split_conditions":[1E0,1E0,1E0,1.1351437E-2,-9.251865E-3,9.068446E-3,2.0899394E-4],"split_indices":[49,34,38,0,0,0,0],"split_type":[0,0,0,0,0,0,0],"sum_hessian":[1.5791666E2,9.649917E1,6.141749E1,1.4586813E1,8.191236E1,5.1161263E1,1.0256224E1],"tree_param":{"num_deleted":"0","num_feature":"92","num_nodes":"7","size_leaf_vector":"1"}},{"base_weights":[-5.357846E-2,-5.5551946E-1,6.8079007E-1,1.1422587E-2,-9.002097E-3,8.183889E-3,-0E0,1.2376747E-2,-4.597153E-3],"categories":[],"categories_nodes":[],"categories_segments":[],"categories_sizes":[],"default_left":[0,0,0,0,0,0,0,0,0],"id":58,"left_children":[1,3,5,-1,-1,-1,7,-1,-1],"loss_changes":[5.730171E1,5.4929634E1,6.183237E0,0E0,0E0,0E0,6.1633234E0,0E0,0E0],"parents":[2147483647,0,0,1,1,2,2,6,6],"right_children":[2,4,6,-1,-1,-1,8,-1,-1],"split_conditions":[1E0,1E0,1E0,1.1422587E-2,-9.002097E-3,8.183889E-3,5.59E3,1.2376747E-2,-4.597153E-3],"split_indices":[49,34,38,0,0,0,13,0,0],"split_type":[0,0,0,0,0,0,0,0,0],"sum_hessian":[1.5438892E2,9.2379616E1,6.20093E1,1.4987483E1,7.739213E1,5.1943684E1,1.0065613E1,2.204206E0,7.861407E0],"tree_param":{"num_deleted":"0","num_feature":"92","num_nodes":"9","size_leaf_vector":"1"}},{"base_weights":[-5.9044816E-2,-6.152568E-1,7.958401E-1,1.0618224E-2,-9.265674E-3,9.028666E-3,-1.18674934E-1,-1.4020197E-2,8.621893E-3],"categories":[],"categories_nodes":[],"categories_segments":[],"categories_sizes":[],"default_left":[0,0,0,0,0,0,0,0,0],"id":59,"left_children":[1,3,5,-1,-1,-1,7,-1,-1],"loss_changes":[7.708871E1,5.2148262E1,6.848091E0,0E0,0E0,0E0,9.38053E0,0E0,0E0],"parents":[2147483647,0,0,1,1,2,2,6,6],"right_children":[2,4,6,-1,-1,-1,8,-1,-1],"split_conditions":[1E0,1E0,6.13936E5,1.0618224E-2,-9.265674E-3,9.028666E-3,6.18493E5,-1.4020197E-2,8.621893E-3],"split_indices":[49,34,5,0,0,0,5,0,0],"split_type":[0,0,0,0,0,0,0,0,0],"sum_hessian":[1.6108377E2,9.820641E1,6.2877357E1,1.4771845E1,8.343456E1,5.699796E1,5.8794003E0,2.7431045E0,3.136296E0],"tree_param":{"num_deleted":"0","num_feature":"92","num_nodes":"9","size_leaf_vector":"1"}},{"base_weights":[1.0187794E-2,-5.2366847E-1,8.3741254E-1,1.2439268E-2,-8.989823E-3,9.147549E-1,-4.9026366E-3,3.3775487E-3,1.0871861E-2],"categories":[],"categories_nodes":[],"categories_segments":[],"categories_sizes":[],"default_left":[0,0,0,0,0,0,0,0,0],"id":60,"left_children":[1,3,5,-1,-1,7,-1,-1,-1],"loss_changes":[7.333431E1,6.687991E1,7.3148804E0,0E0,0E0,4.969761E0,0E0,0E0,0E0],"parents":[2147483647,0,0,1,1,2,2,5,5],"right_children":[2,4,6,-1,-1,8,-1,-1,-1],"split_conditions":[1E0,1E0,1E0,1.2439268E-2,-8.989823E-3,6.27E3,-4.9026366E-3,3.3775487E-3,1.0871861E-2],"split_indices":[49,34,87,0,0,14,0,0,0],"split_type":[0,0,0,0,0,0,0,0,0],"sum_hessian":[1.6426245E2,9.9451805E1,6.481064E1,1.68224E1,8.262941E1,6.1942314E1,2.8683252E0,1.5646721E1,4.6295593E1],"tree_param":{"num_deleted":"0","num_feature":"92","num_nodes":"9","size_leaf_vector":"1"}},{"base_weights":[-5.006779E-2,-6.5084434E-1,8.381038E-3,1.1258913E-2,-9.565511E-3],"categories":[],"categories_nodes":[],"categories_segments":[],"categories_sizes":[],"default_left":[0,0,0,0,0],"id":61,"left_children":[1,3,-1,-1,-1],"loss_changes":[8.518621E1,5.2625706E1,0E0,0E0,0E0],"parents":[2147483647,0,0,1,1],"right_children":[2,4,-1,-1,-1],"split_conditions":[1E0,1E0,8.381038E-3,1.1258913E-2,-9.565511E-3],"split_indices":[49,34,0,0,0],"split_type":[0,0,0,0,0],"sum_hessian":[1.585922E2,9.51855E1,6.3406696E1,1.3375331E1,8.181017E1],"tree_param":{"num_deleted":"0","num_feature":"92","num_nodes":"5","size_leaf_vector":"1"}},{"base_weights":[4.866225E-3,-4.5488057E-1,7.091699E-1,1.2880172E-2,-8.384756E-3,2.2519433E-1,1.00366E0,9.066238E-3,-1.9531223E-3,-3.546465E-3,1.1764503E-2],"categories":[],"categories_nodes":[],"categories_segments":[],"categories_sizes":[],"default_left":[0,0,0,0,0,0,0,0,0,0,0],"id":62,"left_children":[1,3,5,-1,-1,7,9,-1,-1,-1,-1],"loss_changes":[5.290096E1,6.582679E1,8.226585E0,0E0,0E0,8.16257E0,1.0070431E1,0E0,0E0,0E0,0E0],"parents":[2147483647,0,0,1,1,2,2,5,5,6,6],"right_children":[2,4,6,-1,-1,8,10,-1,-1,-1,-1],"split_conditions":[1E0,1E0,1.22248E3,1.2880172E-2,-8.384756E-3,9.9556E2,4.42598E5,9.066238E-3,-1.9531223E-3,-3.546465E-3,1.1764503E-2],"split_indices":[49,34,3,0,0,3,5,0,0,0,0],"split_type":[0,0,0,0,0,0,0,0,0,0,0],"sum_hessian":[1.6152365E2,9.725245E1,6.42712E1,1.6931953E1,8.0320496E1,2.5664225E1,3.8606976E1,1.0158578E1,1.5505646E1,3.8126512E0,3.4794327E1],"tree_param":{"num_deleted":"0","num_feature":"92","num_nodes":"11","size_leaf_vector":"1"}},{"base_weights":[-6.8073094E-2,-6.7423815E-1,7.788674E-1,1.1078707E-2,-9.984167E-3,8.7977123E-1,-3.2150444E-2,4.4774637E-3,1.1670525E-2,4.8559937E-3,-1.2683747E-2],"categories":[],"categories_nodes":[],"categories_segments":[],"categories_sizes":[],"default_left":[0,0,0,0,0,0,0,0,0,0,0],"id":63,"left_children":[1,3,5,-1,-1,7,9,-1,-1,-1,-1],"loss_changes":[7.960192E1,5.3157146E1,5.88488E0,0E0,0E0,5.7011604E0,5.406147E0,0E0,0E0,0E0,0E0],"parents":[2147483647,0,0,1,1,2,2,5,5,6,6],"right_children":[2,4,6,-1,-1,8,10,-1,-1,-1,-1],"split_conditions":[1E0,1E0,1E0,1.1078707E-2,-9.984167E-3,1.23469E3,1E0,4.4774637E-3,1.1670525E-2,4.8559937E-3,-1.2683747E-2],"split_indices":[49,34,27,0,0,3,23,0,0,0,0],"split_type":[0,0,0,0,0,0,0,0,0,0,0],"sum_hessian":[1.5389276E2,9.026563E1,6.3627136E1,1.3312641E1,7.695299E1,5.7323265E1,6.3038716E0,2.4549236E1,3.277403E1,4.3111477E0,1.9927241E0],"tree_param":{"num_deleted":"0","num_feature":"92","num_nodes":"11","size_leaf_vector":"1"}},{"base_weights":[3.0480357E-2,-4.902879E-1,7.7070427E-1,1.1327766E-2,-8.410106E-3,-3.7979167E-3,8.36563E-3],"categories":[],"categories_nodes":[],"categories_segments":[],"categories_sizes":[],"default_left":[0,0,0,0,0,0,0],"id":64,"left_children":[1,3,5,-1,-1,-1,-1],"loss_changes":[6.2623127E1,5.4206776E1,5.6415405E0,0E0,0E0,0E0,0E0],"parents":[2147483647,0,0,1,1,2,2],"right_children":[2,4,6,-1,-1,-1,-1],"split_conditions":[1E0,1E0,1.996E3,1.1327766E-2,-8.410106E-3,-3.7979167E-3,8.36563E-3],"split_indices":[49,34,16,0,0,0,0],"split_type":[0,0,0,0,0,0,0],"sum_hessian":[1.6065347E2,9.386651E1,6.6786964E1,1.6060616E1,7.780589E1,2.8608878E0,6.3926075E1],"tree_param":{"num_deleted":"0","num_feature":"92","num_nodes":"7","size_leaf_vector":"1"}},{"base_weights":[8.444949E-2,-4.8055694E-1,8.7428766E-1,1.1374607E-2,-8.486692E-3,9.72188E-1,-2.8852692E-3,2.5026812E-3,1.1687293E-2],"categories":[],"categories_nodes":[],"categories_segments":[],"categories_sizes":[],"default_left":[0,0,0,0,0,0,0,0,0],"id":65,"left_children":[1,3,5,-1,-1,7,-1,-1,-1],"loss_changes":[7.157502E1,5.5610085E1,8.312233E0,0E0,0E0,7.681484E0,0E0,0E0,0E0],"parents":[2147483647,0,0,1,1,2,2,5,5],"right_children":[2,4,6,-1,-1,8,-1,-1,-1],"split_conditions":[1E0,1E0,6.13936E5,1.1374607E-2,-8.486692E-3,4.50184E5,-2.8852692E-3,2.5026812E-3,1.1687293E-2],"split_indices":[49,34,5,0,0,5,0,0,0],"split_type":[0,0,0,0,0,0,0,0,0],"sum_hessian":[1.5850215E2,9.202145E1,6.648071E1,1.6444818E1,7.557663E1,6.1983707E1,4.4970036E0,1.4357492E1,4.7626217E1],"tree_param":{"num_deleted":"0","num_feature":"92","num_nodes":"9","size_leaf_vector":"1"}},{"base_weights":[-0E0,-5.235684E-1,7.9161197E-1,1.1046896E-2,-9.042587E-3,9.137366E-3,-0E0],"categories":[],"categories_nodes":[],"categories_segments":[],"categories_sizes":[],"default_left":[0,0,0,0,0,0,0],"id":66,"left_children":[1,3,5,-1,-1,-1,-1],"loss_changes":[6.605016E1,6.0024246E1,6.010681E0,0E0,0E0,0E0,0E0],"parents":[2147483647,0,0,1,1,2,2],"right_children":[2,4,6,-1,-1,-1,-1],"split_conditions":[1E0,1E0,1E0,1.1046896E-2,-9.042587E-3,9.137366E-3,-0E0],"split_indices":[49,34,38,0,0,0,0],"split_type":[0,0,0,0,0,0,0],"sum_hessian":[1.5813083E2,9.53803E1,6.275053E1,1.7485249E1,7.789506E1,5.4135845E1,8.614684E0],"tree_param":{"num_deleted":"0","num_feature":"92","num_nodes":"7","size_leaf_vector":"1"}},{"base_weights":[-3.0878894E-2,-6.109071E-1,7.778268E-3,9.917406E-3,-9.241561E-3],"categories":[],"categories_nodes":[],"categories_segments":[],"categories_sizes":[],"default_left":[0,0,0,0,0],"id":67,"left_children":[1,3,-1,-1,-1],"loss_changes":[7.441775E1,4.724758E1,0E0,0E0,0E0],"parents":[2147483647,0,0,1,1],"right_children":[2,4,-1,-1,-1],"split_conditions":[1E0,1E0,7.778268E-3,9.917406E-3,-9.241561E-3],"split_indices":[49,34,0,0,0],"split_type":[0,0,0,0,0],"sum_hessian":[1.57604E2,9.2385544E1,6.521846E1,1.4502697E1,7.788284E1],"tree_param":{"num_deleted":"0","num_feature":"92","num_nodes":"5","size_leaf_vector":"1"}},{"base_weights":[-1.0501624E-2,-5.0292957E-1,7.541149E-1,1.1777777E-2,-8.757997E-3,-4.7831255E-4,8.9964104E-1,1.0471417E-2,1.0933679E-3],"categories":[],"categories_nodes":[],"categories_segments":[],"categories_sizes":[],"default_left":[0,0,0,0,0,0,0,0,0],"id":68,"left_children":[1,3,5,-1,-1,-1,7,-1,-1],"loss_changes":[5.8211414E1,5.9917404E1,7.6614876E0,0E0,0E0,0E0,5.128166E0,0E0,0E0],"parents":[2147483647,0,0,1,1,2,2,6,6],"right_children":[2,4,6,-1,-1,-1,8,-1,-1],"split_conditions":[1E0,1E0,4.43522E5,1.1777777E-2,-8.757997E-3,-4.7831255E-4,6.08767E5,1.0471417E-2,1.0933679E-3],"split_indices":[49,34,5,0,0,0,5,0,0],"split_type":[0,0,0,0,0,0,0,0,0],"sum_hessian":[1.5378607E2,9.4246704E1,5.953937E1,1.6510777E1,7.773593E1,8.455796E0,5.1083572E1,4.2108734E1,8.97484E0],"tree_param":{"num_deleted":"0","num_feature":"92","num_nodes":"9","size_leaf_vector":"1"}},{"base_weights":[4.493002E-2,-4.9822572E-1,8.21319E-3,1.169494E-2,-8.81442E-3],"categories":[],"categories_nodes":[],"categories_segments":[],"categories_sizes":[],"default_left":[0,0,0,0,0],"id":69,"left_children":[1,3,-1,-1,-1],"loss_changes":[6.650889E1,5.9233437E1,0E0,0E0,0E0],"parents":[2147483647,0,0,1,1],"right_children":[2,4,-1,-1,-1],"split_conditions":[1E0,1E0,8.21319E-3,1.169494E-2,-8.81442E-3],"split_indices":[49,34,0,0,0],"split_type":[0,0,0,0,0],"sum_hessian":[1.5589542E2,9.131869E1,6.457672E1,1.646624E1,7.4852455E1],"tree_param":{"num_deleted":"0","num_feature":"92","num_nodes":"5","size_leaf_vector":"1"}},{"base_weights":[-3.8924592E-4,-5.5110765E-1,7.4218357E-1,1.0241872E-2,-8.608453E-3,-0E0,8.5179836E-1,9.750542E-3,-0E0],"categories":[],"categories_nodes":[],"categories_segments":[],"categories_sizes":[],"default_left":[0,0,0,0,0,0,0,0,0],"id":70,"left_children":[1,3,5,-1,-1,-1,7,-1,-1],"loss_changes":[6.3996727E1,4.4657707E1,5.299103E0,0E0,0E0,0E0,5.9025917E0,0E0,0E0],"parents":[2147483647,0,0,1,1,2,2,6,6],"right_children":[2,4,6,-1,-1,-1,8,-1,-1],"split_conditions":[1E0,1E0,4.43522E5,1.0241872E-2,-8.608453E-3,-0E0,6.13936E5,9.750542E-3,-0E0],"split_indices":[49,34,5,0,0,0,5,0,0],"split_type":[0,0,0,0,0,0,0,0,0],"sum_hessian":[1.5553409E2,8.995265E1,6.558144E1,1.4155985E1,7.579667E1,8.644836E0,5.6936604E1,4.9507355E1,7.4292502E0],"tree_param":{"num_deleted":"0","num_feature":"92","num_nodes":"9","size_leaf_vector":"1"}},{"base_weights":[2.9453775E-2,-4.7078505E-1,7.923844E-1,1.1428042E-2,-8.204417E-1,9.346536E-3,-0E0,-1.0268408E-2,-4.2247404E-3],"categories":[],"categories_nodes":[],"categories_segments":[],"categories_sizes":[],"default_left":[0,0,0,0,0,0,0,0,0],"id":71,"left_children":[1,3,5,-1,7,-1,-1,-1,-1],"loss_changes":[5.984265E1,5.3295242E1,6.615917E0,0E0,5.0754166E0,0E0,0E0,0E0,0E0],"parents":[2147483647,0,0,1,1,2,2,4,4],"right_children":[2,4,6,-1,8,-1,-1,-1,-1],"split_conditions":[1E0,1E0,1E0,1.1428042E-2,1E0,9.346536E-3,-0E0,-1.0268408E-2,-4.2247404E-3],"split_indices":[49,34,38,0,21,0,0,0,0],"split_type":[0,0,0,0,0,0,0,0,0],"sum_hessian":[1.5492084E2,9.315179E1,6.1769054E1,1.5964939E1,7.7186844E1,5.1787514E1,9.981541E0,4.897008E1,2.8216766E1],"tree_param":{"num_deleted":"0","num_feature":"92","num_nodes":"9","size_leaf_vector":"1"}},{"base_weights":[-0E0,-5.509755E-1,7.5213406E-3,1.1672847E-2,-9.15032E-3],"categories":[],"categories_nodes":[],"categories_segments":[],"categories_sizes":[],"default_left":[0,0,0,0,0],"id":72,"left_children":[1,3,-1,-1,-1],"loss_changes":[6.4390366E1,5.6189575E1,0E0,0E0,0E0],"parents":[2147483647,0,0,1,1],"right_children":[2,4,-1,-1,-1],"split_conditions":[1E0,1E0,7.5213406E-3,1.1672847E-2,-9.15032E-3],"split_indices":[49,34,0,0,0],"split_type":[0,0,0,0,0],"sum_hessian":[1.5377722E2,8.8365875E1,6.541135E1,1.4856349E1,7.350952E1],"tree_param":{"num_deleted":"0","num_feature":"92","num_nodes":"5","size_leaf_vector":"1"}},{"base_weights":[3.914657E-2,-4.35977E-1,7.177933E-3,9.926747E-3,-7.5036404E-3],"categories":[],"categories_nodes":[],"categories_segments":[],"categories_sizes":[],"default_left":[0,0,0,0,0],"id":73,"left_children":[1,3,-1,-1,-1],"loss_changes":[5.0043354E1,4.0880836E1,0E0,0E0,0E0],"parents":[2147483647,0,0,1,1],"right_children":[2,4,-1,-1,-1],"split_conditions":[1E0,1E0,7.177933E-3,9.926747E-3,-7.5036404E-3],"split_indices":[49,34,0,0,0],"split_type":[0,0,0,0,0],"sum_hessian":[1.5330357E2,8.968828E1,6.3615295E1,1.551483E1,7.417345E1],"tree_param":{"num_deleted":"0","num_feature":"92","num_nodes":"5","size_leaf_vector":"1"}},{"base_weights":[-5.4707476E-3,-5.5833447E-1,7.4297395E-3,1.1406452E-2,-9.087799E-3],"categories":[],"categories_nodes":[],"categories_segments":[],"categories_sizes":[],"default_left":[0,0,0,0,0],"id":74,"left_children":[1,3,-1,-1,-1],"loss_changes":[6.2886753E1,5.2981903E1,0E0,0E0,0E0],"parents":[2147483647,0,0,1,1],"right_children":[2,4,-1,-1,-1],"split_conditions":[1E0,1E0,7.4297395E-3,1.1406452E-2,-9.087799E-3],"split_indices":[49,34,0,0,0],"split_type":[0,0,0,0,0],"sum_hessian":[1.5100485E2,8.749463E1,6.3510227E1,1.4363032E1,7.31316E1],"tree_param":{"num_deleted":"0","num_feature":"92","num_nodes":"5","size_leaf_vector":"1"}},{"base_weights":[-1.82062E-2,-5.254124E-1,6.677361E-1,1.0449393E-2,-8.259587E-3,1.3720566E-2,8.157008E-1,-4.2660064E-3,8.245819E-3,2.7875055E-3,1.1190456E-2],"categories":[],"categories_nodes":[],"categories_segments":[],"categories_sizes":[],"default_left":[0,0,0,0,0,0,0,0,0,0,0],"id":75,"left_children":[1,3,5,-1,-1,7,9,-1,-1,-1,-1],"loss_changes":[5.4069263E1,4.2924683E1,5.746788E0,0E0,0E0,5.386325E0,7.363777E0,0E0,0E0,0E0,0E0],"parents":[2147483647,0,0,1,1,2,2,5,5,6,6],"right_children":[2,4,6,-1,-1,8,10,-1,-1,-1,-1],"split_conditions":[1E0,1E0,4.50184E5,1.0449393E-2,-8.259587E-3,2E0,1.22248E3,-4.2660064E-3,8.245819E-3,2.7875055E-3,1.1190456E-2],"split_indices":[49,34,5,0,0,10,3,0,0,0,0],"split_type":[0,0,0,0,0,0,0,0,0,0,0],"sum_hessian":[1.5440602E2,8.945512E1,6.4950905E1,1.3730756E1,7.572436E1,1.3006309E1,5.1944595E1,8.0551195E0,4.9511895E0,2.0051174E1,3.1893421E1],"tree_param":{"num_deleted":"0","num_feature":"92","num_nodes":"11","size_leaf_vector":"1"}},{"base_weights":[-0E0,-4.9434718E-1,7.091248E-1,1.051619E-2,-8.519165E-3,8.368532E-1,-0E0,9.167895E-3,-1.928569E-3,-1.01989275E-2,5.5380333E-3],"categories":[],"categories_nodes":[],"categories_segments":[],"categories_sizes":[],"default_left":[0,0,0,0,0,0,0,0,0,0,0],"id":76,"left_children":[1,3,5,-1,-1,7,9,-1,-1,-1,-1],"loss_changes":[5.294644E1,4.9602585E1,5.748913E0,0E0,0E0,4.9764214E0,6.048167E0,0E0,0E0,0E0,0E0],"parents":[2147483647,0,0,1,1,2,2,5,5,6,6],"right_children":[2,4,6,-1,-1,8,10,-1,-1,-1,-1],"split_conditions":[1E0,1E0,1E0,1.051619E-2,-8.519165E-3,2.3E1,7.81E3,9.167895E-3,-1.928569E-3,-1.01989275E-2,5.5380333E-3],"split_indices":[49,34,38,0,0,8,14,0,0,0,0],"split_type":[0,0,0,0,0,0,0,0,0,0,0],"sum_hessian":[1.4971858E2,8.829801E1,6.1420567E1,1.5974802E1,7.232321E1,5.212914E1,9.291428E0,4.9084805E1,3.0443332E0,3.1751766E0,6.1162515E0],"tree_param":{"num_deleted":"0","num_feature":"92","num_nodes":"11","size_leaf_vector":"1"}},{"base_weights":[-3.6770657E-2,-5.439218E-1,6.840479E-3,1.0170447E-2,-8.694553E-3],"categories":[],"categories_nodes":[],"categories_segments":[],"categories_sizes":[],"default_left":[0,0,0,0,0],"id":77,"left_children":[1,3,-1,-1,-1],"loss_changes":[5.6716755E1,4.7108208E1,0E0,0E0,0E0],"parents":[2147483647,0,0,1,1],"right_children":[2,4,-1,-1,-1],"split_conditions":[1E0,1E0,6.840479E-3,1.0170447E-2,-8.694553E-3],"split_indices":[49,34,0,0,0],"split_type":[0,0,0,0,0],"sum_hessian":[1.5412035E2,9.1144745E1,6.29756E1,1.5111708E1,7.6033035E1],"tree_param":{"num_deleted":"0","num_feature":"92","num_nodes":"5","size_leaf_vector":"1"}},{"base_weights":[6.190724E-3,-4.8092142E-1,6.7619765E-1,9.3933E-3,-7.930203E-3,-7.7342633E-3,7.5260454E-1,1.1209582E-2,4.2859963E-3],"categories":[],"categories_nodes":[],"categories_segments":[],"categories_sizes":[],"default_left":[0,0,0,0,0,0,0,0,0],"id":78,"left_children":[1,3,5,-1,-1,-1,7,-1,-1],"loss_changes":[4.946673E1,3.889534E1,7.4763203E0,0E0,0E0,0E0,5.9586143E0,0E0,0E0],"parents":[2147483647,0,0,1,1,2,2,6,6],"right_children":[2,4,6,-1,-1,-1,8,-1,-1],"split_conditions":[1E0,1E0,1.996E3,9.3933E-3,-7.930203E-3,-7.7342633E-3,2.005E3,1.1209582E-2,4.2859963E-3],"split_indices":[49,34,16,0,0,0,16,0,0],"split_type":[0,0,0,0,0,0,0,0,0],"sum_hessian":[1.498498E2,8.625431E1,6.359549E1,1.4892459E1,7.136185E1,2.4201062E0,6.117538E1,2.6851156E1,3.4324226E1],"tree_param":{"num_deleted":"0","num_feature":"92","num_nodes":"9","size_leaf_vector":"1"}},{"base_weights":[9.509784E-3,-5.0254E-1,7.317048E-1,1.0035439E-2,-8.270487E-3,8.644173E-3,-0E0],"categories":[],"categories_nodes":[],"categories_segments":[],"categories_sizes":[],"default_left":[0,0,0,0,0,0,0],"id":79,"left_children":[1,3,5,-1,-1,-1,-1],"loss_changes":[5.6766308E1,4.3901375E1,6.1288223E0,0E0,0E0,0E0,0E0],"parents":[2147483647,0,0,1,1,2,2],"right_children":[2,4,6,-1,-1,-1,-1],"split_conditions":[1E0,1E0,1E0,1.0035439E-2,-8.270487E-3,8.644173E-3,-0E0],"split_indices":[49,34,38,0,0,0,0],"split_type":[0,0,0,0,0,0,0],"sum_hessian":[1.5177426E2,8.834265E1,6.3431614E1,1.5029883E1,7.331277E1,5.346883E1,9.962787E0],"tree_param":{"num_deleted":"0","num_feature":"92","num_nodes":"7","size_leaf_vector":"1"}},{"base_weights":[-1.3929953E-2,-4.6921092E-1,6.3793445E-1,-6.3293016E-1,1.0077264E-2,7.2205462E-3,-8.624419E-3,-7.9373E-3,7.4295495E-3],"categories":[],"categories_nodes":[],"categories_segments":[],"categories_sizes":[],"default_left":[0,0,0,0,0,0,0,0,0],"id":80,"left_children":[1,3,5,7,-1,-1,-1,-1,-1],"loss_changes":[4.4111156E1,2.1515512E1,7.9559116E0,1.820478E1,0E0,0E0,0E0,0E0,0E0],"parents":[2147483647,0,0,1,1,2,2,3,3],"right_children":[2,4,6,8,-1,-1,-1,-1,-1],"split_conditions":[1E0,1E0,1E0,1E0,1.0077264E-2,7.2205462E-3,-8.624419E-3,-7.9373E-3,7.4295495E-3],"split_indices":[49,32,82,33,0,0,0,0,0],"split_type":[0,0,0,0,0,0,0,0,0],"sum_hessian":[1.4774207E2,8.774068E1,6.0001385E1,7.9753654E1,7.9870205E0,5.758493E1,2.4164543E0,7.2118675E1,7.634979E0],"tree_param":{"num_deleted":"0","num_feature":"92","num_nodes":"9","size_leaf_vector":"1"}},{"base_weights":[9.617958E-3,-4.5819634E-1,6.321925E-1,1.117365E-2,-8.073327E-3,2.1040125E-3,9.178791E-1,-0E0,1.0536867E-2],"categories":[],"categories_nodes":[],"categories_segments":[],"categories_sizes":[],"default_left":[0,0,0,0,0,0,0,0,0],"id":81,"left_children":[1,3,5,-1,-1,-1,7,-1,-1],"loss_changes":[4.4442154E1,4.779505E1,7.012781E0,0E0,0E0,0E0,5.2845116E0,0E0,0E0],"parents":[2147483647,0,0,1,1,2,2,6,6],"right_children":[2,4,6,-1,-1,-1,8,-1,-1],"split_conditions":[1E0,1E0,1.22248E3,1.117365E-2,-8.073327E-3,2.1040125E-3,4.42598E5,-0E0,1.0536867E-2],"split_indices":[49,34,3,0,0,0,5,0,0],"split_type":[0,0,0,0,0,0,0,0,0],"sum_hessian":[1.50876E2,8.558572E1,6.529029E1,1.4895396E1,7.069032E1,2.7829586E1,3.7460705E1,4.4301453E0,3.303056E1],"tree_param":{"num_deleted":"0","num_feature":"92","num_nodes":"9","size_leaf_vector":"1"}},{"base_weights":[1.710025E-2,-5.2259284E-1,7.4416584E-1,1.0120066E-2,-8.357917E-3,8.2376E-3,-1.1849786E-3],"categories":[],"categories_nodes":[],"categories_segments":[],"categories_sizes":[],"default_left":[0,0,0,0,0,0,0],"id":82,"left_children":[1,3,5,-1,-1,-1,-1],"loss_changes":[5.945278E1,4.1839653E1,5.026802E0,0E0,0E0,0E0,0E0],"parents":[2147483647,0,0,1,1,2,2],"right_children":[2,4,6,-1,-1,-1,-1],"split_conditions":[1E0,1E0,1E0,1.0120066E-2,-8.357917E-3,8.2376E-3,-1.1849786E-3],"split_indices":[49,34,82,0,0,0,0],"split_type":[0,0,0,0,0,0,0],"sum_hessian":[1.4982385E2,8.5531525E1,6.429233E1,1.3865823E1,7.16657E1,5.964794E1,4.644385E0],"tree_param":{"num_deleted":"0","num_feature":"92","num_nodes":"7","size_leaf_vector":"1"}},{"base_weights":[2.9039863E-2,-4.2837295E-1,6.489474E-1,1.1724661E-2,-7.719573E-3,7.403195E-3,-1.0941146E-1,-1.1134554E-2,7.4388073E-3],"categories":[],"categories_nodes":[],"categories_segments":[],"categories_sizes":[],"default_left":[0,0,0,0,0,0,0,0,0],"id":83,"left_children":[1,3,5,-1,-1,-1,7,-1,-1],"loss_changes":[4.435029E1,4.9271534E1,5.1344814E0,0E0,0E0,0E0,6.7156787E0,0E0,0E0],"parents":[2147483647,0,0,1,1,2,2,6,6],"right_children":[2,4,6,-1,-1,-1,8,-1,-1],"split_conditions":[1E0,1E0,6.13936E5,1.1724661E-2,-7.719573E-3,7.403195E-3,6.18493E5,-1.1134554E-2,7.4388073E-3],"split_indices":[49,34,5,0,0,0,5,0,0],"split_type":[0,0,0,0,0,0,0,0,0],"sum_hessian":[1.5457327E2,8.839416E1,6.6179115E1,1.49760275E1,7.341813E1,5.9919132E1,6.2599874E0,3.1709962E0,3.0889912E0],"tree_param":{"num_deleted":"0","num_feature":"92","num_nodes":"9","size_leaf_vector":"1"}},{"base_weights":[3.564863E-2,-4.3635863E-1,6.979353E-1,9.426787E-3,-7.5735464E-3,8.212304E-3,-0E0],"categories":[],"categories_nodes":[],"categories_segments":[],"categories_sizes":[],"default_left":[0,0,0,0,0,0,0],"id":84,"left_children":[1,3,5,-1,-1,-1,-1],"loss_changes":[4.7604942E1,3.9267113E1,4.9391346E0,0E0,0E0,0E0,0E0],"parents":[2147483647,0,0,1,1,2,2],"right_children":[2,4,6,-1,-1,-1,-1],"split_conditions":[1E0,1E0,1E0,9.426787E-3,-7.5735464E-3,8.212304E-3,-0E0],"split_indices":[49,34,38,0,0,0,0],"split_type":[0,0,0,0,0,0,0],"sum_hessian":[1.5041138E2,8.731894E1,6.3092445E1,1.5830096E1,7.1488846E1,5.2714092E1,1.0378355E1],"tree_param":{"num_deleted":"0","num_feature":"92","num_nodes":"7","size_leaf_vector":"1"}},{"base_weights":[-2.3657927E-2,-4.487184E-1,5.7162344E-1,1.00548575E-2,-7.634478E-1,7.92675E-2,8.214103E-1,-1.0118606E-2,-2.7047028E-3,8.51919E-3,-1.9349514E-3,-7.1616156E-4,9.701852E-3],"categories":[],"categories_nodes":[],"categories_segments":[],"categories_sizes":[],"default_left":[0,0,0,0,0,0,0,0,0,0,0,0,0],"id":85,"left_children":[1,3,5,-1,7,9,11,-1,-1,-1,-1,-1,-1],"loss_changes":[3.594946E1,3.8663734E1,6.525036E0,0E0,7.433445E0,5.0913715E0,5.719654E0,0E0,0E0,0E0,0E0,0E0,0E0],"parents":[2147483647,0,0,1,1,2,2,4,4,5,5,6,6],"right_children":[2,4,6,-1,8,10,12,-1,-1,-1,-1,-1,-1],"split_conditions":[1E0,1E0,1.1682E3,1.00548575E-2,1E0,1E0,4.42598E5,-1.0118606E-2,-2.7047028E-3,8.51919E-3,-1.9349514E-3,-7.1616156E-4,9.701852E-3],"split_indices":[49,34,3,0,21,11,5,0,0,0,0,0,0],"split_type":[0,0,0,0,0,0,0,0,0,0,0,0,0],"sum_hessian":[1.4112326E2,8.312767E1,5.7995583E1,1.4133254E1,6.8994415E1,2.0770866E1,3.7224716E1,4.4459343E1,2.4535074E1,5.7465997E0,1.5024266E1,4.6764617E0,3.2548256E1],"tree_param":{"num_deleted":"0","num_feature":"92","num_nodes":"13","size_leaf_vector":"1"}},{"base_weights":[-5.747887E-3,-4.8937216E-1,6.634232E-3,9.550447E-3,-7.926411E-3],"categories":[],"categories_nodes":[],"categories_segments":[],"categories_sizes":[],"default_left":[0,0,0,0,0],"id":86,"left_children":[1,3,-1,-1,-1],"loss_changes":[4.9251705E1,3.9437874E1,0E0,0E0,0E0],"parents":[2147483647,0,0,1,1],"right_children":[2,4,-1,-1,-1],"split_conditions":[1E0,1E0,6.634232E-3,9.550447E-3,-7.926411E-3],"split_indices":[49,34,0,0,0],"split_type":[0,0,0,0,0],"sum_hessian":[1.5127823E2,8.8535286E1,6.274294E1,1.4712735E1,7.382255E1],"tree_param":{"num_deleted":"0","num_feature":"92","num_nodes":"5","size_leaf_vector":"1"}},{"base_weights":[3.6641702E-2,-4.0871137E-1,6.6652507E-1,9.896432E-3,-7.319588E-1,2.876881E-1,9.232049E-3,-9.513403E-3,-2.5551163E-3,4.4883112E-4,1.2000341E-2],"categories":[],"categories_nodes":[],"categories_segments":[],"categories_sizes":[],"default_left":[0,0,0,0,0,0,0,0,0,0,0],"id":87,"left_children":[1,3,5,-1,7,9,-1,-1,-1,-1,-1],"loss_changes":[4.2941696E1,4.0357178E1,5.1637955E0,0E0,6.5880356E0,5.237935E0,0E0,0E0,0E0,0E0,0E0],"parents":[2147483647,0,0,1,1,2,2,4,4,5,5],"right_children":[2,4,6,-1,8,10,-1,-1,-1,-1,-1],"split_conditions":[1E0,1E0,1.22248E3,9.896432E-3,1E0,1.47E4,9.232049E-3,-9.513403E-3,-2.5551163E-3,4.4883112E-4,1.2000341E-2],"split_indices":[49,34,3,0,21,14,0,0,0,0,0],"split_type":[0,0,0,0,0,0,0,0,0,0,0],"sum_hessian":[1.5114804E2,8.801083E1,6.313721E1,1.5859105E1,7.215173E1,2.7180199E1,3.5957012E1,4.7934093E1,2.4217638E1,2.2621908E1,4.558291E0],"tree_param":{"num_deleted":"0","num_feature":"92","num_nodes":"11","size_leaf_vector":"1"}},{"base_weights":[-1.639016E-2,-4.5437732E-1,5.9429026E-1,9.956133E-3,-8.10209E-3,6.7714863E-3,-2.9965343E-3],"categories":[],"categories_nodes":[],"categories_segments":[],"categories_sizes":[],"default_left":[0,0,0,0,0,0,0],"id":88,"left_children":[1,3,5,-1,-1,-1,-1],"loss_changes":[3.9118954E1,4.4789604E1,4.8874683E0,0E0,0E0,0E0,0E0],"parents":[2147483647,0,0,1,1,2,2],"right_children":[2,4,6,-1,-1,-1,-1],"split_conditions":[1E0,1E0,1E0,9.956133E-3,-8.10209E-3,6.7714863E-3,-2.9965343E-3],"split_indices":[49,34,82,0,0,0,0],"split_type":[0,0,0,0,0,0,0],"sum_hessian":[1.453325E2,8.541181E1,5.992069E1,1.6204922E1,6.920689E1,5.571411E1,4.2065754E0],"tree_param":{"num_deleted":"0","num_feature":"92","num_nodes":"7","size_leaf_vector":"1"}},{"base_weights":[1.312633E-2,-4.4099572E-1,5.9805457E-3,9.160325E-3,-6.9433236E-3],"categories":[],"categories_nodes":[],"categories_segments":[],"categories_sizes":[],"default_left":[0,0,0,0,0],"id":89,"left_children":[1,3,-1,-1,-1],"loss_changes":[3.9999676E1,2.907977E1,0E0,0E0,0E0],"parents":[2147483647,0,0,1,1],"right_children":[2,4,-1,-1,-1],"split_conditions":[1E0,1E0,5.9805457E-3,9.160325E-3,-6.9433236E-3],"split_indices":[49,34,0,0,0],"split_type":[0,0,0,0,0],"sum_hessian":[1.4887486E2,8.320873E1,6.566612E1,1.2379806E1,7.0828926E1],"tree_param":{"num_deleted":"0","num_feature":"92","num_nodes":"5","size_leaf_vector":"1"}},{"base_weights":[-0E0,-4.2480764E-1,5.937786E-3,1.07088005E-2,-7.6031893E-1,-9.759031E-3,-2.7830347E-3],"categories":[],"categories_nodes":[],"categories_segments":[],"categories_sizes":[],"default_left":[0,0,0,0,0,0,0],"id":90,"left_children":[1,3,-1,-1,5,-1,-1],"loss_changes":[3.6887054E1,4.314166E1,0E0,0E0,6.252033E0,0E0,0E0],"parents":[2147483647,0,0,1,1,4,4],"right_children":[2,4,-1,-1,6,-1,-1],"split_conditions":[1E0,1E0,5.937786E-3,1.07088005E-2,1E0,-9.759031E-3,-2.7830347E-3],"split_indices":[49,34,0,0,21,0,0],"split_type":[0,0,0,0,0,0,0],"sum_hessian":[1.4500334E2,8.472033E1,6.028301E1,1.4872163E1,6.984817E1,4.6779068E1,2.3069101E1],"tree_param":{"num_deleted":"0","num_feature":"92","num_nodes":"7","size_leaf_vector":"1"}},{"base_weights":[2.8463237E-2,-4.502996E-1,6.8788296E-1,9.071059E-3,-7.3768334E-3,8.196286E-3,-0E0,5.3293887E-3,-8.788704E-3],"categories":[],"categories_nodes":[],"categories_segments":[],"categories_sizes":[],"default_left":[0,0,0,0,0,0,0,0,0],"id":91,"left_children":[1,3,5,-1,-1,-1,7,-1,-1],"loss_changes":[4.6903637E1,3.3529915E1,6.2798347E0,0E0,0E0,0E0,5.1793594E0,0E0,0E0],"parents":[2147483647,0,0,1,1,2,2,6,6],"right_children":[2,4,6,-1,-1,-1,8,-1,-1],"split_conditions":[1E0,1E0,1E0,9.071059E-3,-7.3768334E-3,8.196286E-3,-4.07E4,5.3293887E-3,-8.788704E-3],"split_indices":[49,34,38,0,0,0,7,0,0],"split_type":[0,0,0,0,0,0,0,0,0],"sum_hessian":[1.4674974E2,8.45108E1,6.2238945E1,1.4087493E1,7.042331E1,5.2995678E1,9.243267E0,5.410259E0,3.8330088E0],"tree_param":{"num_deleted":"0","num_feature":"92","num_nodes":"9","size_leaf_vector":"1"}},{"base_weights":[-4.589222E-2,-4.192437E-1,4.7875237E-1,9.883291E-3,-7.3084563E-1,7.497274E-1,1.0535573E-1,-9.591092E-3,-2.8617866E-3,-3.4430113E-3,9.975461E-3,4.0317755E-3,-5.3068143E-3],"categories":[],"categories_nodes":[],"categories_segments":[],"categories_sizes":[],"default_left":[0,0,0,0,0,0,0,0,0,0,0,0,0],"id":92,"left_children":[1,3,5,-1,7,9,11,-1,-1,-1,-1,-1,-1],"loss_changes":[2.817509E1,3.7527916E1,5.3189106E0,0E0,6.068306E0,9.648222E0,5.109248E0,0E0,0E0,0E0,0E0,0E0,0E0],"parents":[2147483647,0,0,1,1,2,2,4,4,5,5,6,6],"right_children":[2,4,6,-1,8,10,12,-1,-1,-1,-1,-1,-1],"split_conditions":[1E0,1E0,1E0,9.883291E-3,1E0,4.48912E5,1E0,-9.591092E-3,-2.8617866E-3,-3.4430113E-3,9.975461E-3,4.0317755E-3,-5.3068143E-3],"split_indices":[49,34,41,0,21,5,48,0,0,0,0,0,0],"split_type":[0,0,0,0,0,0,0,0,0,0,0,0,0],"sum_hessian":[1.427512E2,8.427394E1,5.847726E1,1.4604128E1,6.9669815E1,3.239788E1,2.6079382E1,4.4479717E1,2.51901E1,5.403401E0,2.6994478E1,1.8689938E1,7.3894444E0],"tree_param":{"num_deleted":"0","num_feature":"92","num_nodes":"13","size_leaf_vector":"1"}},{"base_weights":[6.237114E-2,-4.4713363E-1,7.158941E-1,8.782895E-3,-7.336936E-3,8.548313E-3,-0E0],"categories":[],"categories_nodes":[],"categories_segments":[],"categories_sizes":[],"default_left":[0,0,0,0,0,0,0],"id":93,"left_children":[1,3,5,-1,-1,-1,-1],"loss_changes":[4.8538776E1,3.1085299E1,6.7623825E0,0E0,0E0,0E0,0E0],"parents":[2147483647,0,0,1,1,2,2],"right_children":[2,4,6,-1,-1,-1,-1],"split_conditions":[1E0,1E0,1E0,8.782895E-3,-7.336936E-3,8.548313E-3,-0E0],"split_indices":[49,34,38,0,0,0,0],"split_type":[0,0,0,0,0,0,0],"sum_hessian":[1.439297E2,8.0375244E1,6.355445E1,1.3607043E1,6.67682E1,5.3635506E1,9.918946E0],"tree_param":{"num_deleted":"0","num_feature":"92","num_nodes":"7","size_leaf_vector":"1"}},{"base_weights":[-5.7144247E-2,-5.008446E-1,5.246861E-1,1.0116059E-2,-8.075552E-3,1.50291E-3,7.627988E-1,-1.8013772E-3,8.998487E-3],"categories":[],"categories_nodes":[],"categories_segments":[],"categories_sizes":[],"default_left":[0,0,0,0,0,0,0,0,0],"id":94,"left_children":[1,3,5,-1,-1,-1,7,-1,-1],"loss_changes":[3.819197E1,3.9638157E1,4.9214134E0,0E0,0E0,0E0,5.45397E0,0E0,0E0],"parents":[2147483647,0,0,1,1,2,2,6,6],"right_children":[2,4,6,-1,-1,-1,8,-1,-1],"split_conditions":[1E0,1E0,1.22248E3,1.0116059E-2,-8.075552E-3,1.50291E-3,4.42598E5,-1.8013772E-3,8.998487E-3],"split_indices":[49,34,3,0,0,0,5,0,0],"split_type":[0,0,0,0,0,0,0,0,0],"sum_hessian":[1.467034E2,8.398067E1,6.272274E1,1.3515404E1,7.046526E1,2.5961813E1,3.676093E1,3.976248E0,3.2784683E1],"tree_param":{"num_deleted":"0","num_feature":"92","num_nodes":"9","size_leaf_vector":"1"}},{"base_weights":[2.0618109E-2,-5.264708E-1,7.0065427E-1,1.0519063E-2,-9.068671E-1,2.4736896E-1,9.908246E-3,7.98829E-3,-9.557706E-3,8.376642E-3,-1.4568294E-3],"categories":[],"categories_nodes":[],"categories_segments":[],"categories_sizes":[],"default_left":[0,0,0,0,0,0,0,0,0,0,0],"id":95,"left_children":[1,3,5,-1,7,9,-1,-1,-1,-1,-1],"loss_changes":[5.4868366E1,4.912924E1,7.6594315E0,0E0,6.1073723E0,6.989971E0,0E0,0E0,0E0,0E0,0E0],"parents":[2147483647,0,0,1,1,2,2,4,4,5,5],"right_children":[2,4,6,-1,8,10,-1,-1,-1,-1,-1],"split_conditions":[1E0,1E0,1.22248E3,1.0519063E-2,4.31277E5,9.9556E2,9.908246E-3,7.98829E-3,-9.557706E-3,8.376642E-3,-1.4568294E-3],"split_indices":[49,34,3,0,5,3,0,0,0,0,0],"split_type":[0,0,0,0,0,0,0,0,0,0,0],"sum_hessian":[1.458587E2,8.032789E1,6.5530815E1,1.5012927E1,6.5314964E1,2.7006472E1,3.852434E1,1.1364424E0,6.417852E1,1.1230896E1,1.5775577E1],"tree_param":{"num_deleted":"0","num_feature":"92","num_nodes":"11","size_leaf_vector":"1"}},{"base_weights":[-0E0,9.606932E-3,-1.4610435E-1,5.2314788E-2,-7.4256593E-3,3.3641718E-3,-5.6740292E-3],"categories":[],"categories_nodes":[],"categories_segments":[],"categories_sizes":[],"default_left":[0,0,0,0,0,0,0],"id":96,"left_children":[1,-1,3,5,-1,-1,-1],"loss_changes":[2.0083601E1,0E0,1.5539873E1,1.6673044E1,0E0,0E0,0E0],"parents":[2147483647,0,0,2,2,3,3],"right_children":[2,-1,4,6,-1,-1,-1],"split_conditions":[1E0,9.606932E-3,1E0,1E0,-7.4256593E-3,3.3641718E-3,-5.6740292E-3],"split_indices":[34,0,50,51,0,0,0],"split_type":[0,0,0,0,0,0,0],"sum_hessian":[1.4445134E2,1.8179579E1,1.2627177E2,9.4292885E1,3.1978884E1,6.564785E1,2.8645035E1],"tree_param":{"num_deleted":"0","num_feature":"92","num_nodes":"7","size_leaf_vector":"1"}},{"base_weights":[-1.2462214E-2,-4.4931847E-1,5.7417357E-1,9.701273E-3,-7.688255E-1,3.4143772E-2,8.744134E-3,-1.0235072E-2,-2.9890211E-3,5.9936815E-3,-3.912496E-3],"categories":[],"categories_nodes":[],"categories_segments":[],"categories_sizes":[],"default_left":[0,0,0,0,0,0,0,0,0,0,0],"id":97,"left_children":[1,3,5,-1,7,9,-1,-1,-1,-1,-1],"loss_changes":[3.7345943E1,3.8621506E1,9.326935E0,0E0,7.194664E0,5.9638486E0,0E0,0E0,0E0,0E0,0E0],"parents":[2147483647,0,0,1,1,2,2,4,4,5,5],"right_children":[2,4,6,-1,8,10,-1,-1,-1,-1,-1],"split_conditions":[1E0,1E0,1.22248E3,9.701273E-3,1E0,9.9556E2,8.744134E-3,-1.0235072E-2,-2.9890211E-3,5.9936815E-3,-3.912496E-3],"split_indices":[49,34,3,0,21,3,0,0,0,0,0],"split_type":[0,0,0,0,0,0,0,0,0,0,0],"sum_hessian":[1.4477907E2,8.3769295E1,6.100977E1,1.4738095E1,6.90312E1,2.2908619E1,3.8101147E1,4.3287018E1,2.5744179E1,1.0446841E1,1.2461778E1],"tree_param":{"num_deleted":"0","num_feature":"92","num_nodes":"11","size_leaf_vector":"1"}},{"base_weights":[-5.277102E-3,-4.6608075E-1,5.722618E-1,1.0232449E-2,-8.174528E-3,1.8655058E-2,7.579603E-3,-5.332864E-3,1.0052379E-2],"categories":[],"categories_nodes":[],"categories_segments":[],"categories_sizes":[],"default_left":[0,0,0,0,0,0,0,0,0],"id":98,"left_children":[1,3,5,-1,-1,7,-1,-1,-1],"loss_changes":[3.774207E1,4.211325E1,5.847395E0,0E0,0E0,1.0103431E1,0E0,0E0,0E0],"parents":[2147483647,0,0,1,1,2,2,5,5],"right_children":[2,4,6,-1,-1,8,-1,-1,-1],"split_conditions":[1E0,1E0,6.27E3,1.0232449E-2,-8.174528E-3,1E0,7.579603E-3,-5.332864E-3,1.0052379E-2],"split_indices":[49,34,14,0,0,46,0,0,0],"split_type":[0,0,0,0,0,0,0,0,0],"sum_hessian":[1.4081009E2,7.907914E1,6.173095E1,1.4470851E1,6.460829E1,1.665246E1,4.5078487E1,1.0403291E1,6.2491703E0],"tree_param":{"num_deleted":"0","num_feature":"92","num_nodes":"9","size_leaf_vector":"1"}},{"base_weights":[-2.5366608E-2,-4.7854853E-1,5.729035E-3,9.807292E-3,-7.928746E-1,-8.9241285E-3,-0E0],"categories":[],"categories_nodes":[],"categories_segments":[],"categories_sizes":[],"default_left":[0,0,0,0,0,0,0],"id":99,"left_children":[1,3,-1,-1,5,-1,-1],"loss_changes":[3.734768E1,3.668761E1,0E0,0E0,5.475422E0,0E0,0E0],"parents":[2147483647,0,0,1,1,4,4],"right_children":[2,4,-1,-1,6,-1,-1],"split_conditions":[1E0,1E0,5.729035E-3,9.807292E-3,1E0,-8.9241285E-3,-0E0],"split_indices":[49,34,0,0,63,0,0],"split_type":[0,0,0,0,0,0,0],"sum_hessian":[1.3670139E2,7.853675E1,5.816464E1,1.3272375E1,6.526437E1,5.8256577E1,7.007797E0],"tree_param":{"num_deleted":"0","num_feature":"92","num_nodes":"7","size_leaf_vector":"1"}},{"base_weights":[1.8734008E-2,-3.941091E-1,5.3937227E-1,9.749185E-3,-6.8735296E-1,-0E0,7.4148464E-1,-9.362684E-3,-1.6927187E-3,1.0570875E-2,2.778275E-3],"categories":[],"categories_nodes":[],"categories_segments":[],"categories_sizes":[],"default_left":[0,0,0,0,0,0,0,0,0,0,0],"id":100,"left_children":[1,3,5,-1,7,-1,9,-1,-1,-1,-1],"loss_changes":[3.105201E1,3.216474E1,7.2752876E0,0E0,7.6599255E0,0E0,5.7802334E0,0E0,0E0,0E0,0E0],"parents":[2147483647,0,0,1,1,2,2,4,4,6,6],"right_children":[2,4,6,-1,8,-1,10,-1,-1,-1,-1],"split_conditions":[1E0,1E0,4.54985E5,9.749185E-3,1E0,-0E0,3E0,-9.362684E-3,-1.6927187E-3,1.0570875E-2,2.778275E-3],"split_indices":[49,34,5,0,21,0,9,0,0,0,0],"split_type":[0,0,0,0,0,0,0,0,0,0,0],"sum_hessian":[1.4269899E2,7.89092E1,6.3789787E1,1.3225016E1,6.568418E1,1.710725E1,4.6682537E1,4.308204E1,2.2602144E1,2.6365513E1,2.0317022E1],"tree_param":{"num_deleted":"0","num_feature":"92","num_nodes":"11","size_leaf_vector":"1"}},{"base_weights":[-4.333359E-3,-5.0446033E-1,6.5833903E-3,9.581187E-3,-8.6290276E-1,-0E0,-9.719035E-3],"categories":[],"categories_nodes":[],"categories_segments":[],"categories_sizes":[],"default_left":[0,0,0,0,0,0,0],"id":101,"left_children":[1,3,-1,-1,5,-1,-1],"loss_changes":[4.573016E1,4.2110657E1,0E0,0E0,5.9123917E0,0E0,0E0],"parents":[2147483647,0,0,1,1,4,4],"right_children":[2,4,-1,-1,6,-1,-1],"split_conditions":[1E0,1E0,6.5833903E-3,9.581187E-3,2.9E1,-0E0,-9.719035E-3],"split_indices":[49,34,0,0,1,0,0],"split_type":[0,0,0,0,0,0,0],"sum_hessian":[1.3702223E2,7.8791725E1,5.8230507E1,1.4903264E1,6.388846E1,7.4043455E0,5.648411E1],"tree_param":{"num_deleted":"0","num_feature":"92","num_nodes":"7","size_leaf_vector":"1"}},{"base_weights":[-2.3924895E-3,-4.1658378E-1,5.4785064E-3,8.399088E-3,-7.1961633E-3],"categories":[],"categories_nodes":[],"categories_segments":[],"categories_sizes":[],"default_left":[0,0,0,0,0],"id":102,"left_children":[1,3,-1,-1,-1],"loss_changes":[3.2672462E1,3.1818321E1,0E0,0E0,0E0],"parents":[2147483647,0,0,1,1],"right_children":[2,4,-1,-1,-1],"split_conditions":[1E0,1E0,5.4785064E-3,8.399088E-3,-7.1961633E-3],"split_indices":[49,34,0,0,0],"split_type":[0,0,0,0,0],"sum_hessian":[1.4247968E2,8.212142E1,6.0358246E1,1.5275727E1,6.6845695E1],"tree_param":{"num_deleted":"0","num_feature":"92","num_nodes":"5","size_leaf_vector":"1"}},{"base_weights":[-0E0,-4.5683476E-1,5.942819E-1,8.764684E-3,-7.7845273E-3,7.9461646E-1,-0E0,9.684269E-3,5.384004E-4,5.8616647E-3,-6.03546E-3],"categories":[],"categories_nodes":[],"categories_segments":[],"categories_sizes":[],"default_left":[0,0,0,0,0,0,0,0,0,0,0],"id":103,"left_children":[1,3,5,-1,-1,7,9,-1,-1,-1,-1],"loss_changes":[3.8478622E1,3.437829E1,7.037817E0,0E0,0E0,5.14085E0,6.185138E0,0E0,0E0,0E0,0E0],"parents":[2147483647,0,0,1,1,2,2,5,5,6,6],"right_children":[2,4,6,-1,-1,8,10,-1,-1,-1,-1],"split_conditions":[1E0,1E0,6.0332E5,8.764684E-3,-7.7845273E-3,1E0,3E0,9.684269E-3,5.384004E-4,5.8616647E-3,-6.03546E-3],"split_indices":[49,34,5,0,0,53,9,0,0,0,0],"split_type":[0,0,0,0,0,0,0,0,0,0,0],"sum_hessian":[1.4010301E2,7.8661385E1,6.1441624E1,1.4637993E1,6.402339E1,4.5227886E1,1.621374E1,3.568912E1,9.538763E0,8.609177E0,7.604563E0],"tree_param":{"num_deleted":"0","num_feature":"92","num_nodes":"11","size_leaf_vector":"1"}},{"base_weights":[-1.26011E-1,-5.2743167E-1,3.8731256E-1,7.6499926E-3,-8.2467515E-3,1.8487151E-1,1.0228419E-2,5.6566703E-3,-2.6906414E-3],"categories":[],"categories_nodes":[],"categories_segments":[],"categories_sizes":[],"default_left":[0,0,0,0,0,0,0,0,0],"id":104,"left_children":[1,3,5,-1,-1,7,-1,-1,-1],"loss_changes":[2.8197538E1,3.0113432E1,6.622796E0,0E0,0E0,8.348408E0,0E0,0E0,0E0],"parents":[2147483647,0,0,1,1,2,2,5,5],"right_children":[2,4,6,-1,-1,8,-1,-1,-1],"split_conditions":[1E0,1E0,2E6,7.6499926E-3,-8.2467515E-3,8.4E3,1.0228419E-2,5.6566703E-3,-2.6906414E-3],"split_indices":[49,34,4,0,0,13,0,0,0],"split_type":[0,0,0,0,0,0,0,0,0],"sum_hessian":[1.3506975E2,7.656933E1,5.8500427E1,1.36768675E1,6.2892456E1,4.585409E1,1.2646334E1,2.570725E1,2.0146841E1],"tree_param":{"num_deleted":"0","num_feature":"92","num_nodes":"9","size_leaf_vector":"1"}},{"base_weights":[2.7067116E-2,-4.213542E-1,5.717921E-1,7.86351E-3,-6.7345393E-3,6.983076E-1,-2.2673438E-4,7.752583E-3,-3.3905518E-3],"categories":[],"categories_nodes":[],"categories_segments":[],"categories_sizes":[],"default_left":[0,0,0,0,0,0,0,0,0],"id":105,"left_children":[1,3,5,-1,-1,7,-1,-1,-1],"loss_changes":[3.527405E1,2.4089878E1,5.4360046E0,0E0,0E0,4.8878727E0,0E0,0E0,0E0],"parents":[2147483647,0,0,1,1,2,2,5,5],"right_children":[2,4,6,-1,-1,8,-1,-1,-1],"split_conditions":[1E0,1E0,1E0,7.86351E-3,-6.7345393E-3,2.3E1,-2.2673438E-4,7.752583E-3,-3.3905518E-3],"split_indices":[49,34,38,0,0,8,0,0,0],"split_type":[0,0,0,0,0,0,0,0,0],"sum_hessian":[1.4268481E2,7.7619644E1,6.506517E1,1.267772E1,6.4941925E1,5.4547806E1,1.0517361E1,5.1575302E1,2.9725056E0],"tree_param":{"num_deleted":"0","num_feature":"92","num_nodes":"9","size_leaf_vector":"1"}},{"base_weights":[-8.048364E-3,-3.5870942E-1,4.6271208E-1,9.806475E-3,-6.7898613E-1,-8.9801446E-2,6.764499E-1,-7.6026386E-3,2.2826123E-3,-1.4659706E-2,1.6266735E-3,9.599195E-3,9.872522E-4],"categories":[],"categories_nodes":[],"categories_segments":[],"categories_sizes":[],"default_left":[0,0,0,0,0,0,0,0,0,0,0,0,0],"id":106,"left_children":[1,3,5,-1,7,9,11,-1,-1,-1,-1,-1,-1],"loss_changes":[2.1903124E1,3.331437E1,7.0686674E0,0E0,5.1447964E0,6.3845854E0,5.955311E0,0E0,0E0,0E0,0E0,0E0,0E0],"parents":[2147483647,0,0,1,1,2,2,4,4,5,5,6,6],"right_children":[2,4,6,-1,8,10,12,-1,-1,-1,-1,-1,-1],"split_conditions":[1E0,1E0,4.54985E5,9.806475E-3,1E0,5.79E3,6.0332E5,-7.6026386E-3,2.2826123E-3,-1.4659706E-2,1.6266735E-3,9.599195E-3,9.872522E-4],"split_indices":[49,34,5,0,91,14,5,0,0,0,0,0,0],"split_type":[0,0,0,0,0,0,0,0,0,0,0,0,0],"sum_hessian":[1.3184032E2,7.651799E1,5.532233E1,1.4078175E1,6.243981E1,1.4601629E1,4.0720703E1,5.8126217E1,4.313596E0,2.222086E0,1.2379543E1,2.6199236E1,1.4521467E1],"tree_param":{"num_deleted":"0","num_feature":"92","num_nodes":"13","size_leaf_vector":"1"}},{"base_weights":[-7.742245E-3,-4.1915137E-1,5.080327E-1,9.007944E-3,-7.203786E-3,-0E0,6.89461E-1,-5.727383E-3,9.538184E-3,7.947633E-3,-2.7203257E-3],"categories":[],"categories_nodes":[],"categories_segments":[],"categories_sizes":[],"default_left":[0,0,0,0,0,0,0,0,0,0,0],"id":107,"left_children":[1,3,5,-1,-1,7,9,-1,-1,-1,-1],"loss_changes":[2.9742237E1,3.1662096E1,5.529563E0,0E0,0E0,9.800522E0,5.075678E0,0E0,0E0,0E0,0E0],"parents":[2147483647,0,0,1,1,2,2,5,5,6,6],"right_children":[2,4,6,-1,-1,8,10,-1,-1,-1,-1],"split_conditions":[1E0,1E0,6.27E3,9.007944E-3,-7.203786E-3,1E0,1E0,-5.727383E-3,9.538184E-3,7.947633E-3,-2.7203257E-3],"split_indices":[49,34,14,0,0,46,27,0,0,0,0],"split_type":[0,0,0,0,0,0,0,0,0,0,0],"sum_hessian":[1.3917139E2,7.825788E1,6.0913498E1,1.3860549E1,6.439733E1,1.6502832E1,4.4410664E1,1.0335184E1,6.1676483E0,4.079898E1,3.6116853E0],"tree_param":{"num_deleted":"0","num_feature":"92","num_nodes":"11","size_leaf_vector":"1"}},{"base_weights":[2.370669E-2,-3.8603446E-1,5.286517E-1,8.0658365E-3,-6.943562E-1,6.527936E-3,-3.1061338E-2,-9.477387E-3,-1.616164E-3,3.4030224E-3,-1.0898973E-2],"categories":[],"categories_nodes":[],"categories_segments":[],"categories_sizes":[],"default_left":[0,0,0,0,0,0,0,0,0,0,0],"id":108,"left_children":[1,3,5,-1,7,-1,9,-1,-1,-1,-1],"loss_changes":[2.9201971E1,2.8551918E1,4.8895607E0,0E0,7.4643955E0,0E0,5.1591134E0,0E0,0E0,0E0,0E0],"parents":[2147483647,0,0,1,1,2,2,4,4,6,6],"right_children":[2,4,6,-1,8,-1,10,-1,-1,-1,-1],"split_conditions":[1E0,1E0,1E0,8.0658365E-3,1E0,6.527936E-3,4.77631E5,-9.477387E-3,-1.616164E-3,3.4030224E-3,-1.0898973E-2],"split_indices":[49,34,38,0,21,0,5,0,0,0,0],"split_type":[0,0,0,0,0,0,0,0,0,0,0],"sum_hessian":[1.3936676E2,7.6237465E1,6.3129303E1,1.4969295E1,6.1268166E1,5.262837E1,1.0500935E1,4.0268658E1,2.0999508E1,7.5980234E0,2.9029105E0],"tree_param":{"num_deleted":"0","num_feature":"92","num_nodes":"11","size_leaf_vector":"1"}},{"base_weights":[7.016893E-2,-3.8989174E-1,6.3237864E-1,8.580453E-3,-6.912468E-1,2.1195567E-1,9.122711E-3,-9.103496E-3,-2.5525126E-3,7.422227E-3,-1.4665421E-3],"categories":[],"categories_nodes":[],"categories_segments":[],"categories_sizes":[],"default_left":[0,0,0,0,0,0,0,0,0,0,0],"id":109,"left_children":[1,3,5,-1,7,9,-1,-1,-1,-1,-1],"loss_changes":[3.8026848E1,3.0291683E1,6.899313E0,0E0,5.237688E0,5.9074817E0,0E0,0E0,0E0,0E0,0E0],"parents":[2147483647,0,0,1,1,2,2,4,4,5,5],"right_children":[2,4,6,-1,8,10,-1,-1,-1,-1,-1],"split_conditions":[1E0,1E0,1.22248E3,8.580453E-3,1E0,9.9556E2,9.122711E-3,-9.103496E-3,-2.5525126E-3,7.422227E-3,-1.4665421E-3],"split_indices":[49,34,3,0,21,3,0,0,0,0,0],"split_type":[0,0,0,0,0,0,0,0,0,0,0],"sum_hessian":[1.4508788E2,7.920125E1,6.588663E1,1.4711439E1,6.448981E1,2.7808449E1,3.807818E1,4.136027E1,2.3129538E1,1.1745935E1,1.6062513E1],"tree_param":{"num_deleted":"0","num_feature":"92","num_nodes":"11","size_leaf_vector":"1"}},{"base_weights":[1.8617578E-2,-4.4419327E-1,5.721767E-1,8.07477E-3,-7.001856E-3,-0E0,7.2793546E-3,-3.025881E-3,1.0301392E-2],"categories":[],"categories_nodes":[],"categories_segments":[],"categories_sizes":[],"default_left":[0,0,0,0,0,0,0,0,0],"id":110,"left_children":[1,3,5,-1,-1,7,-1,-1,-1],"loss_changes":[3.5610134E1,2.4261642E1,5.3275604E0,0E0,0E0,5.2320814E0,0E0,0E0,0E0],"parents":[2147483647,0,0,1,1,2,2,5,5],"right_children":[2,4,6,-1,-1,8,-1,-1,-1],"split_conditions":[1E0,1E0,4.50184E5,8.07477E-3,-7.001856E-3,1.296E4,7.2793546E-3,-3.025881E-3,1.0301392E-2],"split_indices":[49,34,5,0,0,13,0,0,0],"split_type":[0,0,0,0,0,0,0,0,0],"sum_hessian":[1.3735344E2,7.417366E1,6.317977E1,1.1883208E1,6.229045E1,1.4337557E1,4.8842216E1,1.1062987E1,3.2745688E0],"tree_param":{"num_deleted":"0","num_feature":"92","num_nodes":"9","size_leaf_vector":"1"}},{"base_weights":[-0E0,-3.8732454E-1,4.7415096E-1,9.309837E-3,-6.8864954E-1,-2.955293E-1,6.0127646E-1,-8.955828E-3,-5.8808987E-4,-9.582294E-3,8.148673E-3,8.392763E-3,-0E0],"categories":[],"categories_nodes":[],"categories_segments":[],"categories_sizes":[],"default_left":[0,0,0,0,0,0,0,0,0,0,0,0,0],"id":111,"left_children":[1,3,5,-1,7,9,11,-1,-1,-1,-1,-1,-1],"loss_changes":[2.4953989E1,2.9946846E1,6.311448E0,0E0,7.322071E0,6.7105875E0,7.1433563E0,0E0,0E0,0E0,0E0,0E0,0E0],"parents":[2147483647,0,0,1,1,2,2,4,4,5,5,6,6],"right_children":[2,4,6,-1,8,10,12,-1,-1,-1,-1,-1,-1],"split_conditions":[1E0,1E0,4.43522E5,9.309837E-3,1E0,1.296E4,6.0332E5,-8.955828E-3,-5.8808987E-4,-9.582294E-3,8.148673E-3,8.392763E-3,-0E0],"split_indices":[49,34,5,0,47,13,5,0,0,0,0,0,0],"split_type":[0,0,0,0,0,0,0,0,0,0,0,0,0],"sum_hessian":[1.3458516E2,7.413661E1,6.044855E1,1.30997095E1,6.1036903E1,7.649211E0,5.279934E1,4.488187E1,1.6155031E1,5.2495003E0,2.3997104E0,3.692688E1,1.58724575E1],"tree_param":{"num_deleted":"0","num_feature":"92","num_nodes":"13","size_leaf_vector":"1"}},{"base_weights":[9.3351126E-2,-3.4523952E-1,6.3926876E-1,7.97964E-3,-6.02044E-1,7.1618985E-3,-3.1219237E-3,-8.219408E-3,-1.5927001E-3],"categories":[],"categories_nodes":[],"categories_segments":[],"categories_sizes":[],"default_left":[0,0,0,0,0,0,0,0,0],"id":112,"left_children":[1,3,5,-1,7,-1,-1,-1,-1],"loss_changes":[3.424476E1,2.3122581E1,5.118532E0,0E0,5.514448E0,0E0,0E0,0E0,0E0],"parents":[2147483647,0,0,1,1,2,2,4,4],"right_children":[2,4,6,-1,8,-1,-1,-1,-1],"split_conditions":[1E0,1E0,1E0,7.97964E-3,1E0,7.1618985E-3,-3.1219237E-3,-8.219408E-3,-1.5927001E-3],"split_indices":[49,34,82,0,21,0,0,0,0],"split_type":[0,0,0,0,0,0,0,0,0],"sum_hessian":[1.4090363E2,7.753654E1,6.3367092E1,1.3461621E1,6.407491E1,5.9471264E1,3.8958287E0,4.136283E1,2.2712086E1],"tree_param":{"num_deleted":"0","num_feature":"92","num_nodes":"9","size_leaf_vector":"1"}},{"base_weights":[2.31558E-2,-4.5922056E-1,6.17489E-3,7.1399007E-3,-7.2485673E-1,-8.425582E-3,-0E0],"categories":[],"categories_nodes":[],"categories_segments":[],"categories_sizes":[],"default_left":[0,0,0,0,0,0,0],"id":113,"left_children":[1,3,-1,-1,5,-1,-1],"loss_changes":[4.0050716E1,2.4104164E1,0E0,0E0,5.273735E0,0E0,0E0],"parents":[2147483647,0,0,1,1,4,4],"right_children":[2,4,-1,-1,6,-1,-1],"split_conditions":[1E0,1E0,6.17489E-3,7.1399007E-3,1E0,-8.425582E-3,-0E0],"split_indices":[49,34,0,0,70,0,0],"split_type":[0,0,0,0,0,0,0],"sum_hessian":[1.3801988E2,7.5601685E1,6.2418198E1,1.3258608E1,6.234308E1,5.3402615E1,8.940462E0],"tree_param":{"num_deleted":"0","num_feature":"92","num_nodes":"7","size_leaf_vector":"1"}},{"base_weights":[3.4676563E-2,-4.1093147E-1,5.8247346E-1,7.88388E-3,-6.8878406E-3,-0E0,7.8359413E-1,-1.15809925E-2,3.501806E-3,1.09764775E-2,2.3899938E-3],"categories":[],"categories_nodes":[],"categories_segments":[],"categories_sizes":[],"default_left":[0,0,0,0,0,0,0,0,0,0,0],"id":114,"left_children":[1,3,5,-1,-1,7,9,-1,-1,-1,-1],"loss_changes":[3.3859867E1,2.544561E1,6.831497E0,0E0,0E0,6.8596334E0,6.7018147E0,0E0,0E0,0E0,0E0],"parents":[2147483647,0,0,1,1,2,2,5,5,6,6],"right_children":[2,4,6,-1,-1,8,10,-1,-1,-1,-1],"split_conditions":[1E0,1E0,